{"graph_0": {"_type": "graph-file", "path": "media/graph/graph_0_summary_7d09ed07.graph.json", "sha256": "7d09ed07b7cb17184016ff4d517005e5e3bcbde68cfb30021904f4620b804f84", "size": 2084}, "parameters/linear3.bias": {"_type": "histogram", "values": [1.0, 0.0, 0.0, 0.0, 0.0, 0.0, 0.0, 0.0, 0.0, 0.0, 0.0, 0.0, 0.0, 1.0, 0.0, 0.0, 0.0, 0.0, 1.0, 2.0, 0.0, 0.0, 0.0, 0.0, 0.0, 0.0, 0.0, 0.0, 0.0, 1.0, 0.0, 1.0, 0.0, 0.0, 1.0, 0.0, 1.0, 1.0, 1.0, 2.0, 1.0, 1.0, 0.0, 1.0, 0.0, 1.0, 0.0, 0.0, 2.0, 1.0, 2.0, 0.0, 0.0, 0.0, 0.0, 0.0, 1.0, 0.0, 0.0, 0.0, 1.0, 1.0, 1.0, 3.0], "bins": [-0.24410858750343323, -0.23652073740959167, -0.22893288731575012, -0.22134503722190857, -0.21375718712806702, -0.20616932213306427, -0.19858147203922272, -0.19099362194538116, -0.1834057718515396, -0.17581792175769806, -0.1682300716638565, -0.16064222157001495, -0.1530543565750122, -0.14546650648117065, -0.1378786563873291, -0.13029080629348755, -0.122702956199646, -0.11511510610580444, -0.10752725601196289, -0.09993939846754074, -0.09235154837369919, -0.08476369827985764, -0.07717584073543549, -0.06958799064159393, -0.06200014054775238, -0.05441229045391083, -0.046824436634778976, -0.039236582815647125, -0.03164873272180557, -0.02406088076531887, -0.01647302880883217, -0.008885176852345467, -0.0012973248958587646, 0.006290527060627937, 0.01387837901711464, 0.02146623097360134, 0.029054082930088043, 0.036641933023929596, 0.04422978684306145, 0.0518176406621933, 0.05940549075603485, 0.0669933408498764, 0.07458119094371796, 0.0821690484881401, 0.08975689858198166, 0.09734474867582321, 0.10493260622024536, 0.11252045631408691, 0.12010830640792847, 0.12769615650177002, 0.13528400659561157, 0.14287185668945312, 0.15045970678329468, 0.15804757177829742, 0.16563542187213898, 0.17322327196598053, 0.18081112205982208, 0.18839897215366364, 0.1959868222475052, 0.20357467234134674, 0.2111625373363495, 0.21875038743019104, 0.2263382375240326, 0.23392608761787415, 0.2415139377117157]}, "parameters/conv1.lin.weight": {"_type": "histogram", "values": [1.0, 2.0, 9.0, 4.0, 2.0, 6.0, 6.0, 14.0, 17.0, 19.0, 15.0, 19.0, 30.0, 29.0, 27.0, 35.0, 30.0, 39.0, 49.0, 52.0, 44.0, 53.0, 52.0, 59.0, 57.0, 55.0, 43.0, 49.0, 45.0, 50.0, 46.0, 46.0, 63.0, 68.0, 68.0, 65.0, 104.0, 144.0, 173.0, 184.0, 292.0, 420.0, 624.0, 1023.0, 1759.0, 3383.0, 6532.0, 10704.0, 12407.0, 10634.0, 7430.0, 4838.0, 2656.0, 1368.0, 680.0, 305.0, 152.0, 52.0, 29.0, 21.0, 10.0, 3.0, 3.0, 2.0], "bins": [-1.6382989883422852, -1.604462742805481, -1.5706266164779663, -1.536790370941162, -1.5029542446136475, -1.4691179990768433, -1.4352818727493286, -1.4014456272125244, -1.3676095008850098, -1.3337732553482056, -1.2999370098114014, -1.2661008834838867, -1.2322646379470825, -1.1984285116195679, -1.1645922660827637, -1.130756139755249, -1.0969198942184448, -1.0630836486816406, -1.029247522354126, -0.9954113364219666, -0.9615751504898071, -0.9277389049530029, -0.8939027190208435, -0.8600665330886841, -0.8262303471565247, -0.7923941612243652, -0.7585579752922058, -0.7247217893600464, -0.6908855438232422, -0.6570493578910828, -0.6232131719589233, -0.5893769860267639, -0.5555408000946045, -0.5217046141624451, -0.48786842823028564, -0.45403221249580383, -0.4201960265636444, -0.386359840631485, -0.3525236248970032, -0.31868743896484375, -0.2848512530326843, -0.2510150671005249, -0.21717886626720428, -0.18334266543388367, -0.14950647950172424, -0.11567028611898422, -0.0818340927362442, -0.04799789935350418, -0.01416170597076416, 0.01967448741197586, 0.05351068079471588, 0.0873468741774559, 0.12118306756019592, 0.15501925349235535, 0.18885545432567596, 0.22269165515899658, 0.256527841091156, 0.29036402702331543, 0.32420021295547485, 0.35803642868995667, 0.3918726146221161, 0.4257088005542755, 0.4595450162887573, 0.49338120222091675, 0.5272173881530762]}, "parameters/conv3.att_j": {"_type": "histogram", "values": [1.0, 1.0, 0.0, 0.0, 2.0, 0.0, 1.0, 1.0, 0.0, 1.0, 0.0, 2.0, 0.0, 3.0, 1.0, 1.0, 3.0, 3.0, 0.0, 4.0, 4.0, 3.0, 2.0, 4.0, 5.0, 4.0, 3.0, 3.0, 6.0, 5.0, 6.0, 5.0, 2.0, 3.0, 5.0, 6.0, 4.0, 6.0, 4.0, 3.0, 7.0, 5.0, 9.0, 4.0, 2.0, 2.0, 6.0, 12.0, 7.0, 2.0, 1.0, 2.0, 5.0, 5.0, 5.0, 5.0, 4.0, 1.0, 3.0, 3.0, 1.0, 1.0, 0.0, 1.0], "bins": [-0.9792418479919434, -0.9504547715187073, -0.9216676354408264, -0.8928805589675903, -0.8640934228897095, -0.8353063464164734, -0.8065192699432373, -0.7777321338653564, -0.7489450573921204, -0.7201579213142395, -0.6913708448410034, -0.6625837683677673, -0.6337966322898865, -0.6050095558166504, -0.5762224197387695, -0.5474353432655334, -0.5186482667922974, -0.4898611307144165, -0.46107402443885803, -0.43228694796562195, -0.4034998416900635, -0.374712735414505, -0.34592562913894653, -0.31713852286338806, -0.2883514165878296, -0.2595643401145935, -0.23077723383903503, -0.20199012756347656, -0.1732030212879181, -0.1444159299135208, -0.11562882363796234, -0.08684172481298447, -0.05805462598800659, -0.029267525300383568, -0.0004804246127605438, 0.02830667607486248, 0.057093776762485504, 0.08588087558746338, 0.11466798186302185, 0.14345507323741913, 0.1722421795129776, 0.20102928578853607, 0.22981637716293335, 0.2586034834384918, 0.2873905897140503, 0.31617769598960876, 0.34496477246284485, 0.3737518787384033, 0.4025389850139618, 0.43132609128952026, 0.46011319756507874, 0.4889002740383148, 0.5176873803138733, 0.5464745163917542, 0.5752615928649902, 0.6040486693382263, 0.6328358054161072, 0.6616228818893433, 0.6904100179672241, 0.7191970944404602, 0.7479841709136963, 0.7767713069915771, 0.8055583834648132, 0.8343455195426941, 0.8631325960159302]}, "Training Specificity": 0.9020891377477008, "parameters/linear1.bias": {"_type": "histogram", "values": [1.0, 0.0, 0.0, 0.0, 0.0, 0.0, 1.0, 1.0, 0.0, 1.0, 1.0, 1.0, 0.0, 2.0, 3.0, 1.0, 1.0, 4.0, 0.0, 3.0, 3.0, 4.0, 6.0, 4.0, 5.0, 2.0, 1.0, 3.0, 2.0, 2.0, 6.0, 4.0, 2.0, 3.0, 1.0, 0.0, 3.0, 2.0, 2.0, 3.0, 3.0, 3.0, 1.0, 2.0, 1.0, 0.0, 1.0, 5.0, 2.0, 0.0, 0.0, 0.0, 0.0, 0.0, 1.0, 0.0, 0.0, 1.0, 0.0, 1.0, 0.0, 0.0, 0.0, 1.0], "bins": [-0.18537230789661407, -0.17905619740486145, -0.17274008691310883, -0.1664239764213562, -0.16010786592960358, -0.15379175543785095, -0.14747565984725952, -0.1411595493555069, -0.13484343886375427, -0.12852732837200165, -0.12221121788024902, -0.1158951073884964, -0.10957899689674377, -0.10326288640499115, -0.09694678336381912, -0.0906306728720665, -0.08431456238031387, -0.07799845188856125, -0.07168234139680862, -0.0653662383556366, -0.05905012786388397, -0.05273401737213135, -0.04641790688037872, -0.0401018001139164, -0.03378568962216377, -0.027469580993056297, -0.021153472363948822, -0.014837361872196198, -0.008521253243088722, -0.0022051441483199596, 0.004110964946448803, 0.010427074506878853, 0.016743183135986328, 0.023059291765093803, 0.02937540039420128, 0.0356915108859539, 0.04200761765241623, 0.048323728144168854, 0.05463983863592148, 0.060955945402383804, 0.06727205216884613, 0.07358816266059875, 0.07990427315235138, 0.086220383644104, 0.09253649413585663, 0.09885260462760925, 0.10516870766878128, 0.1114848181605339, 0.11780092865228653, 0.12411703914403915, 0.13043314218521118, 0.1367492526769638, 0.14306536316871643, 0.14938147366046906, 0.15569758415222168, 0.1620136946439743, 0.16832980513572693, 0.17464591562747955, 0.18096202611923218, 0.1872781217098236, 0.19359423220157623, 0.19991034269332886, 0.20622645318508148, 0.2125425636768341, 0.21885867416858673]}, "parameters/conv3.lin.weight": {"_type": "histogram", "values": [1.0, 0.0, 1.0, 1.0, 0.0, 0.0, 0.0, 1.0, 3.0, 1.0, 4.0, 4.0, 2.0, 3.0, 4.0, 6.0, 6.0, 19.0, 21.0, 21.0, 40.0, 39.0, 42.0, 68.0, 81.0, 115.0, 173.0, 294.0, 483.0, 978.0, 2028.0, 3636.0, 4791.0, 5293.0, 5290.0, 5050.0, 4611.0, 3467.0, 1753.0, 759.0, 372.0, 188.0, 101.0, 85.0, 52.0, 28.0, 20.0, 13.0, 14.0, 11.0, 4.0, 9.0, 0.0, 7.0, 4.0, 1.0, 0.0, 0.0, 1.0, 0.0, 0.0, 0.0, 0.0, 1.0], "bins": [-1.2795329093933105, -1.2421908378601074, -1.2048486471176147, -1.1675065755844116, -1.1301645040512085, -1.0928223133087158, -1.0554802417755127, -1.0181381702423096, -0.9807960391044617, -0.9434539079666138, -0.9061118364334106, -0.8687697052955627, -0.8314275741577148, -0.7940855026245117, -0.7567433714866638, -0.7194012999534607, -0.6820591688156128, -0.6447170376777649, -0.6073749661445618, -0.5700328350067139, -0.5326907634735107, -0.49534863233566284, -0.45800650119781494, -0.42066439986228943, -0.3833222985267639, -0.3459801971912384, -0.3086380958557129, -0.271295964717865, -0.23395386338233948, -0.19661176204681396, -0.15926964581012726, -0.12192753702402115, -0.08458542823791504, -0.04724331945180893, -0.00990121066570282, 0.02744089812040329, 0.0647830069065094, 0.10212511569261551, 0.13946722447872162, 0.17680934071540833, 0.21415144205093384, 0.25149354338645935, 0.28883564472198486, 0.32617777585983276, 0.3635198771953583, 0.4008619785308838, 0.4382041096687317, 0.4755462110042572, 0.5128883123397827, 0.5502304434776306, 0.5875725150108337, 0.6249146461486816, 0.6622567176818848, 0.6995988488197327, 0.7369409799575806, 0.7742830514907837, 0.8116251826286316, 0.8489673137664795, 0.8863093852996826, 0.9236515164375305, 0.9609936475753784, 0.9983357191085815, 1.0356777906417847, 1.0730199813842773, 1.1103620529174805]}, "Validation Sensitivity": 0.9299689587056721, "parameters/conv1.bias": {"_type": "histogram", "values": [2.0, 1.0, 0.0, 0.0, 2.0, 2.0, 1.0, 2.0, 5.0, 5.0, 2.0, 7.0, 11.0, 12.0, 11.0, 13.0, 18.0, 19.0, 12.0, 8.0, 8.0, 11.0, 7.0, 8.0, 2.0, 6.0, 6.0, 1.0, 5.0, 4.0, 2.0, 0.0, 0.0, 0.0, 0.0, 1.0, 0.0, 1.0, 0.0, 1.0, 0.0, 0.0, 1.0, 0.0, 0.0, 0.0, 0.0, 0.0, 0.0, 0.0, 1.0, 0.0, 0.0, 1.0, 0.0, 0.0, 0.0, 0.0, 0.0, 0.0, 0.0, 0.0, 0.0, 1.0], "bins": [-0.027625633403658867, -0.025821886956691742, -0.024018140509724617, -0.022214394062757492, -0.020410647615790367, -0.018606901168823242, -0.016803154721856117, -0.014999407343566418, -0.013195660896599293, -0.011391914449632168, -0.009588168002665043, -0.007784421090036631, -0.005980674643069506, -0.004176928196102381, -0.002373181516304612, -0.0005694349529221654, 0.0012343116104602814, 0.0030380580574274063, 0.004841804504394531, 0.0066455514170229435, 0.008449297398328781, 0.01025304477661848, 0.012056791223585606, 0.01386053767055273, 0.01566428318619728, 0.017468031495809555, 0.01927177794277668, 0.021075524389743805, 0.02287927083671093, 0.024683017283678055, 0.02648676373064518, 0.028290510177612305, 0.03009425662457943, 0.031898003071546555, 0.03370175138115883, 0.035505495965480804, 0.03730924427509308, 0.039112988859415054, 0.04091673716902733, 0.042720481753349304, 0.04452423006296158, 0.046327974647283554, 0.04813172295689583, 0.049935467541217804, 0.05173921585083008, 0.053542960435152054, 0.05534670874476433, 0.057150453329086304, 0.05895420163869858, 0.06075794994831085, 0.06256169825792313, 0.0643654391169548, 0.06616918742656708, 0.06797293573617935, 0.06977668404579163, 0.0715804249048233, 0.07338417321443558, 0.07518792152404785, 0.07699166983366013, 0.0787954106926918, 0.08059915900230408, 0.08240290731191635, 0.08420665562152863, 0.0860103964805603, 0.08781414479017258]}, "Training Accuracy": 0.9072462621228449, "parameters/linear2.weight": {"_type": "histogram", "values": [1.0, 0.0, 0.0, 0.0, 0.0, 0.0, 0.0, 1.0, 0.0, 0.0, 0.0, 0.0, 0.0, 1.0, 0.0, 1.0, 1.0, 2.0, 2.0, 1.0, 2.0, 2.0, 2.0, 4.0, 2.0, 6.0, 5.0, 6.0, 6.0, 10.0, 10.0, 13.0, 11.0, 30.0, 27.0, 45.0, 84.0, 127.0, 271.0, 756.0, 1178.0, 1413.0, 1470.0, 1427.0, 1320.0, 903.0, 394.0, 174.0, 120.0, 67.0, 37.0, 18.0, 18.0, 9.0, 5.0, 6.0, 3.0, 0.0, 4.0, 3.0, 0.0, 1.0, 0.0, 1.0], "bins": [-1.3444584608078003, -1.3129987716674805, -1.2815390825271606, -1.2500793933868408, -1.218619704246521, -1.1871600151062012, -1.1557002067565918, -1.124240517616272, -1.0927808284759521, -1.0613211393356323, -1.0298614501953125, -0.9984017610549927, -0.9669420719146729, -0.935482382774353, -0.9040226340293884, -0.8725629448890686, -0.8411032557487488, -0.809643566608429, -0.7781838774681091, -0.7467241287231445, -0.7152644395828247, -0.6838047504425049, -0.6523450613021851, -0.6208853721618652, -0.5894256830215454, -0.5579659342765808, -0.526506245136261, -0.49504655599594116, -0.46358686685562134, -0.4321271479129791, -0.4006674587726593, -0.3692077398300171, -0.33774805068969727, -0.30628836154937744, -0.27482864260673523, -0.2433689534664154, -0.2119092494249344, -0.18044954538345337, -0.14898985624313354, -0.11753015220165253, -0.08607044816017151, -0.05461074784398079, -0.02315104752779007, 0.00830865278840065, 0.03976835310459137, 0.07122805714607239, 0.10268775373697281, 0.13414745032787323, 0.16560715436935425, 0.19706685841083527, 0.22852656245231628, 0.2599862515926361, 0.2914459705352783, 0.32290565967559814, 0.35436534881591797, 0.3858250677585602, 0.41728475689888, 0.44874444603919983, 0.48020416498184204, 0.5116638541221619, 0.5431235432624817, 0.5745832324028015, 0.6060429811477661, 0.6375026702880859, 0.6689623594284058]}, "Test Specificity": 0.8977397982941652, "Test Hard Accuracy": 0.152109375, "parameters/conv4.lin.weight": {"_type": "histogram", "values": [1.0, 1.0, 1.0, 0.0, 1.0, 0.0, 0.0, 0.0, 1.0, 2.0, 1.0, 0.0, 1.0, 4.0, 7.0, 2.0, 3.0, 2.0, 0.0, 9.0, 9.0, 8.0, 8.0, 11.0, 16.0, 21.0, 36.0, 43.0, 74.0, 127.0, 199.0, 336.0, 747.0, 2387.0, 4406.0, 5102.0, 5217.0, 5199.0, 5233.0, 4799.0, 3226.0, 1505.0, 612.0, 258.0, 141.0, 83.0, 48.0, 26.0, 27.0, 19.0, 11.0, 7.0, 3.0, 3.0, 2.0, 2.0, 2.0, 3.0, 2.0, 1.0, 0.0, 2.0, 2.0, 1.0], "bins": [-1.3269437551498413, -1.2912522554397583, -1.2555607557296753, -1.2198693752288818, -1.1841778755187988, -1.1484863758087158, -1.1127948760986328, -1.0771033763885498, -1.0414118766784668, -1.0057204961776733, -0.9700289964675903, -0.9343374967575073, -0.8986459970474243, -0.8629545569419861, -0.8272630572319031, -0.7915716171264648, -0.7558801174163818, -0.7201886177062988, -0.6844971776008606, -0.6488056778907776, -0.6131142377853394, -0.5774227380752563, -0.5417312383651733, -0.5060397982597351, -0.4703482985496521, -0.4346568286418915, -0.39896535873413086, -0.36327385902404785, -0.32758238911628723, -0.2918909192085266, -0.2561994194984436, -0.22050794959068298, -0.18481647968292236, -0.14912500977516174, -0.11343352496623993, -0.07774204760789871, -0.042050570249557495, -0.006359092891216278, 0.02933238446712494, 0.06502386182546616, 0.10071533918380737, 0.136406809091568, 0.1720982939004898, 0.20778977870941162, 0.24348124861717224, 0.27917271852493286, 0.31486421823501587, 0.3505556881427765, 0.3862471580505371, 0.42193862795829773, 0.45763009786605835, 0.49332159757614136, 0.5290130376815796, 0.5647045373916626, 0.6003960371017456, 0.6360874772071838, 0.6717789769172668, 0.7074704766273499, 0.7431619167327881, 0.7788534164428711, 0.8145449161529541, 0.8502363562583923, 0.8859278559684753, 0.9216192960739136, 0.9573107957839966]}, "Validation Specificity": 0.8974851682989151, "Training Sensitivity": 0.9619191423944743, "Training Loss": 8.588632383346557, "parameters/conv4.att_j": {"_type": "histogram", "values": [1.0, 1.0, 0.0, 2.0, 4.0, 2.0, 1.0, 1.0, 2.0, 1.0, 1.0, 5.0, 1.0, 2.0, 1.0, 5.0, 8.0, 4.0, 7.0, 2.0, 5.0, 5.0, 5.0, 3.0, 2.0, 5.0, 9.0, 2.0, 3.0, 3.0, 5.0, 5.0, 4.0, 1.0, 2.0, 5.0, 9.0, 2.0, 3.0, 6.0, 1.0, 5.0, 2.0, 2.0, 2.0, 4.0, 6.0, 2.0, 5.0, 6.0, 5.0, 3.0, 2.0, 3.0, 1.0, 1.0, 4.0, 1.0, 1.0, 2.0, 0.0, 3.0, 3.0, 1.0], "bins": [-0.3097023367881775, -0.29989367723464966, -0.29008498787879944, -0.2802762985229492, -0.2704676389694214, -0.26065897941589355, -0.25085029006004333, -0.2410416156053543, -0.23123294115066528, -0.22142426669597626, -0.21161559224128723, -0.2018069177865982, -0.19199824333190918, -0.18218956887722015, -0.17238089442253113, -0.1625722199678421, -0.15276354551315308, -0.14295487105846405, -0.13314619660377502, -0.123337522149086, -0.11352884769439697, -0.10372017323970795, -0.09391149878501892, -0.0841028243303299, -0.07429414987564087, -0.06448547542095184, -0.05467680096626282, -0.04486812651157379, -0.035059452056884766, -0.02525077760219574, -0.015442103147506714, -0.005633428692817688, 0.004175245761871338, 0.013983920216560364, 0.02379259467124939, 0.033601269125938416, 0.04340994358062744, 0.05321861803531647, 0.0630272924900055, 0.07283596694469452, 0.08264464139938354, 0.09245331585407257, 0.1022619903087616, 0.11207066476345062, 0.12187933921813965, 0.13168801367282867, 0.1414966881275177, 0.15130536258220673, 0.16111403703689575, 0.17092271149158478, 0.1807313859462738, 0.19054006040096283, 0.20034873485565186, 0.21015740931034088, 0.2199660837650299, 0.22977475821971893, 0.23958343267440796, 0.24939210712909698, 0.259200781583786, 0.26900947093963623, 0.27881813049316406, 0.2886267900466919, 0.2984354794025421, 0.30824416875839233, 0.31805282831192017]}, "Test Accuracy": 0.9006155711206897, "_step": 108, "parameters/conv5.bias": {"_type": "histogram", "values": [1.0, 0.0, 0.0, 1.0, 2.0, 1.0, 1.0, 2.0, 2.0, 1.0, 1.0, 3.0, 1.0, 7.0, 4.0, 9.0, 6.0, 13.0, 13.0, 8.0, 21.0, 12.0, 3.0, 4.0, 6.0, 5.0, 4.0, 10.0, 6.0, 4.0, 4.0, 4.0, 7.0, 4.0, 5.0, 2.0, 3.0, 4.0, 1.0, 3.0, 0.0, 0.0, 2.0, 1.0, 2.0, 2.0, 1.0, 2.0, 0.0, 0.0, 0.0, 0.0, 1.0, 0.0, 0.0, 0.0, 0.0, 0.0, 0.0, 0.0, 0.0, 0.0, 0.0, 1.0], "bins": [-0.10706376284360886, -0.10214448720216751, -0.09722521156072617, -0.09230593591928482, -0.08738666027784348, -0.08246738463640213, -0.07754810899496078, -0.07262883335351944, -0.0677095577120781, -0.06279028207063675, -0.057871006429195404, -0.05295173078775406, -0.048032455146312714, -0.04311317950487137, -0.03819390386343002, -0.03327462822198868, -0.028355352580547333, -0.023436076939105988, -0.018516801297664642, -0.013597525656223297, -0.008678250014781952, -0.0037589743733406067, 0.0011603012681007385, 0.006079576909542084, 0.010998852550983429, 0.015918128192424774, 0.02083740383386612, 0.025756679475307465, 0.03067595511674881, 0.035595230758190155, 0.0405145063996315, 0.045433782041072845, 0.05035305768251419, 0.055272333323955536, 0.06019160896539688, 0.06511088460683823, 0.07003016024827957, 0.07494943588972092, 0.07986871153116226, 0.08478798717260361, 0.08970726281404495, 0.0946265384554863, 0.09954581409692764, 0.10446508973836899, 0.10938436537981033, 0.11430364102125168, 0.11922291666269302, 0.12414219230413437, 0.12906146049499512, 0.13398075103759766, 0.1389000117778778, 0.14381930232048035, 0.1487385630607605, 0.15365785360336304, 0.1585771143436432, 0.16349640488624573, 0.16841566562652588, 0.17333495616912842, 0.17825421690940857, 0.1831735074520111, 0.18809276819229126, 0.1930120587348938, 0.19793131947517395, 0.2028506100177765, 0.20776987075805664]}, "parameters/conv4.bias": {"_type": "histogram", "values": [1.0, 0.0, 0.0, 0.0, 0.0, 1.0, 1.0, 1.0, 2.0, 2.0, 0.0, 1.0, 0.0, 1.0, 4.0, 2.0, 7.0, 4.0, 6.0, 4.0, 4.0, 7.0, 7.0, 17.0, 14.0, 5.0, 4.0, 1.0, 6.0, 2.0, 4.0, 5.0, 3.0, 3.0, 5.0, 5.0, 5.0, 5.0, 7.0, 9.0, 6.0, 5.0, 3.0, 4.0, 3.0, 2.0, 7.0, 2.0, 1.0, 1.0, 1.0, 0.0, 2.0, 2.0, 1.0, 1.0, 0.0, 1.0, 0.0, 0.0, 1.0, 1.0, 0.0, 1.0], "bins": [-0.09921438992023468, -0.09550449252128601, -0.09179460257291794, -0.08808471262454987, -0.0843748152256012, -0.08066491782665253, -0.07695502787828445, -0.07324513792991638, -0.06953524053096771, -0.06582534313201904, -0.06211545318365097, -0.0584055595099926, -0.05469566583633423, -0.05098577216267586, -0.04727587848901749, -0.043565984815359116, -0.039856091141700745, -0.036146197468042374, -0.032436303794384, -0.02872641012072563, -0.02501651644706726, -0.02130662277340889, -0.01759672909975052, -0.013886835426092148, -0.010176941752433777, -0.006467048078775406, -0.002757154405117035, 0.0009527392685413361, 0.004662632942199707, 0.008372526615858078, 0.012082420289516449, 0.01579231396317482, 0.01950220763683319, 0.023212101310491562, 0.026921994984149933, 0.030631888657808304, 0.034341782331466675, 0.038051676005125046, 0.04176156967878342, 0.04547146335244179, 0.04918135702610016, 0.05289125069975853, 0.0566011443734169, 0.06031103804707527, 0.06402093172073364, 0.06773082911968231, 0.07144071906805038, 0.07515060901641846, 0.07886050641536713, 0.0825704038143158, 0.08628029376268387, 0.08999018371105194, 0.09370008111000061, 0.09740997850894928, 0.10111986845731735, 0.10482975840568542, 0.1085396558046341, 0.11224955320358276, 0.11595944315195084, 0.11966933310031891, 0.12337923049926758, 0.12708912789821625, 0.13079902529716492, 0.1345089077949524, 0.13821880519390106]}, "parameters/conv3.att_i": {"_type": "histogram", "values": [2.0, 0.0, 0.0, 2.0, 0.0, 0.0, 4.0, 1.0, 1.0, 2.0, 3.0, 5.0, 3.0, 3.0, 3.0, 7.0, 4.0, 3.0, 3.0, 5.0, 2.0, 5.0, 3.0, 8.0, 4.0, 8.0, 6.0, 1.0, 1.0, 2.0, 5.0, 2.0, 2.0, 5.0, 3.0, 3.0, 4.0, 3.0, 4.0, 6.0, 6.0, 8.0, 2.0, 1.0, 5.0, 3.0, 5.0, 7.0, 2.0, 6.0, 3.0, 2.0, 3.0, 3.0, 3.0, 4.0, 3.0, 0.0, 2.0, 1.0, 0.0, 2.0, 0.0, 1.0], "bins": [-0.2862448990345001, -0.2770233750343323, -0.26780185103416443, -0.2585803270339966, -0.24935880303382874, -0.2401372790336609, -0.23091575503349304, -0.2216942310333252, -0.21247270703315735, -0.2032511830329895, -0.19402965903282166, -0.1848081350326538, -0.17558661103248596, -0.16636508703231812, -0.15714356303215027, -0.14792203903198242, -0.13870051503181458, -0.12947899103164673, -0.12025746703147888, -0.11103594303131104, -0.10181441903114319, -0.09259289503097534, -0.0833713710308075, -0.07414984703063965, -0.0649283230304718, -0.055706799030303955, -0.04648527503013611, -0.03726375102996826, -0.028042227029800415, -0.01882070302963257, -0.009599179029464722, -0.000377655029296875, 0.008843868970870972, 0.01806539297103882, 0.027286916971206665, 0.03650844097137451, 0.04572996497154236, 0.054951488971710205, 0.06417301297187805, 0.0733945369720459, 0.08261606097221375, 0.09183758497238159, 0.10105910897254944, 0.11028063297271729, 0.11950215697288513, 0.12872368097305298, 0.13794520497322083, 0.14716672897338867, 0.15638825297355652, 0.16560977697372437, 0.1748313009738922, 0.18405282497406006, 0.1932743489742279, 0.20249587297439575, 0.2117173969745636, 0.22093892097473145, 0.2301604449748993, 0.23938196897506714, 0.24860349297523499, 0.25782501697540283, 0.2670465409755707, 0.2762680649757385, 0.28548958897590637, 0.2947111129760742, 0.30393263697624207]}, "parameters/conv2.att_i": {"_type": "histogram", "values": [2.0, 0.0, 0.0, 1.0, 0.0, 0.0, 0.0, 0.0, 1.0, 0.0, 0.0, 0.0, 1.0, 0.0, 0.0, 1.0, 2.0, 4.0, 1.0, 1.0, 2.0, 3.0, 3.0, 5.0, 6.0, 12.0, 3.0, 11.0, 2.0, 9.0, 7.0, 12.0, 9.0, 5.0, 8.0, 8.0, 10.0, 7.0, 15.0, 5.0, 8.0, 9.0, 2.0, 2.0, 3.0, 4.0, 6.0, 0.0, 2.0, 2.0, 1.0, 0.0, 3.0, 0.0, 0.0, 1.0, 0.0, 0.0, 0.0, 0.0, 0.0, 0.0, 0.0, 1.0], "bins": [-0.725785493850708, -0.6994574666023254, -0.6731294393539429, -0.6468014121055603, -0.6204733848571777, -0.5941452980041504, -0.5678172707557678, -0.5414892435073853, -0.5151612162590027, -0.4888331890106201, -0.46250516176223755, -0.4361771047115326, -0.40984907746315, -0.38352105021476746, -0.3571929931640625, -0.33086496591567993, -0.30453693866729736, -0.2782089114189148, -0.2518808841705322, -0.22555282711982727, -0.1992247998714447, -0.17289677262306213, -0.14656873047351837, -0.1202406957745552, -0.09391266107559204, -0.06758462637662888, -0.04125659167766571, -0.014928556978702545, 0.01139947772026062, 0.037727512419223785, 0.06405554711818695, 0.09038358181715012, 0.11671161651611328, 0.14303964376449585, 0.1693676859140396, 0.19569572806358337, 0.22202375531196594, 0.2483517825603485, 0.27467983961105347, 0.30100786685943604, 0.3273358941078186, 0.35366392135620117, 0.37999194860458374, 0.4063200056552887, 0.43264803290367126, 0.45897606015205383, 0.4853041172027588, 0.5116321444511414, 0.5379601716995239, 0.5642881989479065, 0.5906162261962891, 0.6169442534446716, 0.6432722806930542, 0.6696003675460815, 0.6959283947944641, 0.7222564220428467, 0.7485844492912292, 0.7749124765396118, 0.8012405037879944, 0.827568531036377, 0.8538966178894043, 0.8802246451377869, 0.9065526723861694, 0.932880699634552, 0.9592087268829346]}, "Test Sensitivity": 0.9312096319056876, "Training Hard Accuracy": 0.1620166015625, "Validation Loss": 10.85102424621582, "Test Loss": 10.762428359985352, "parameters/conv5.att_i": {"_type": "histogram", "values": [5.0, 1.0, 2.0, 2.0, 2.0, 4.0, 2.0, 4.0, 2.0, 2.0, 0.0, 4.0, 3.0, 3.0, 6.0, 4.0, 5.0, 4.0, 1.0, 3.0, 2.0, 3.0, 1.0, 3.0, 5.0, 4.0, 4.0, 5.0, 6.0, 6.0, 3.0, 3.0, 3.0, 4.0, 4.0, 4.0, 5.0, 5.0, 4.0, 4.0, 1.0, 2.0, 2.0, 1.0, 4.0, 3.0, 3.0, 2.0, 5.0, 3.0, 2.0, 2.0, 3.0, 3.0, 6.0, 0.0, 2.0, 1.0, 4.0, 3.0, 2.0, 2.0, 4.0, 3.0], "bins": [-0.24625156819820404, -0.23861157894134521, -0.23097160458564758, -0.22333161532878876, -0.21569162607192993, -0.2080516517162323, -0.20041166245937347, -0.19277168810367584, -0.18513169884681702, -0.1774917095899582, -0.16985173523426056, -0.16221174597740173, -0.1545717716217041, -0.14693178236484528, -0.13929179310798645, -0.13165181875228882, -0.12401182949542999, -0.11637184768915176, -0.10873186588287354, -0.10109187662601471, -0.09345189481973648, -0.08581191301345825, -0.07817192375659943, -0.0705319419503212, -0.06289196014404297, -0.05525197833776474, -0.04761199280619621, -0.039972007274627686, -0.03233202546834946, -0.02469204179942608, -0.0170520581305027, -0.009412074461579323, -0.0017720907926559448, 0.005867892876267433, 0.013507876545190811, 0.02114786021411419, 0.028787843883037567, 0.036427825689315796, 0.04406781122088432, 0.05170779675245285, 0.05934777855873108, 0.06698776036500931, 0.07462774217128754, 0.08226773142814636, 0.08990771323442459, 0.09754769504070282, 0.10518768429756165, 0.11282766610383987, 0.1204676479101181, 0.12810763716697693, 0.13574761152267456, 0.1433876007795334, 0.1510275900363922, 0.15866756439208984, 0.16630755364894867, 0.1739475280046463, 0.18158751726150513, 0.18922750651836395, 0.19686748087406158, 0.2045074701309204, 0.21214744448661804, 0.21978743374347687, 0.2274274230003357, 0.23506739735603333, 0.24270738661289215]}, "parameters/conv4.att_i": {"_type": "histogram", "values": [5.0, 2.0, 4.0, 3.0, 4.0, 3.0, 5.0, 7.0, 1.0, 5.0, 2.0, 3.0, 3.0, 2.0, 2.0, 3.0, 2.0, 4.0, 2.0, 3.0, 2.0, 6.0, 4.0, 4.0, 2.0, 3.0, 1.0, 3.0, 2.0, 0.0, 2.0, 3.0, 4.0, 4.0, 3.0, 4.0, 3.0, 4.0, 1.0, 1.0, 5.0, 3.0, 3.0, 3.0, 2.0, 1.0, 5.0, 0.0, 3.0, 5.0, 2.0, 1.0, 7.0, 3.0, 3.0, 6.0, 3.0, 0.0, 3.0, 2.0, 4.0, 3.0, 5.0, 7.0], "bins": [-0.24127613008022308, -0.23376362025737762, -0.22625111043453217, -0.2187386006116867, -0.21122609078884125, -0.2037135809659958, -0.19620107114315033, -0.18868856132030487, -0.1811760514974594, -0.17366354167461395, -0.1661510318517685, -0.15863852202892303, -0.15112601220607758, -0.14361350238323212, -0.13610099256038666, -0.1285884827375412, -0.12107597291469574, -0.11356346309185028, -0.10605095326900482, -0.09853844344615936, -0.0910259336233139, -0.08351342380046844, -0.07600091397762299, -0.06848840415477753, -0.06097589433193207, -0.05346338450908661, -0.04595087468624115, -0.03843836486339569, -0.030925855040550232, -0.023413345217704773, -0.015900835394859314, -0.008388325572013855, -0.000875815749168396, 0.006636694073677063, 0.014149203896522522, 0.02166171371936798, 0.02917422354221344, 0.0366867333650589, 0.04419924318790436, 0.05171175301074982, 0.059224262833595276, 0.06673677265644073, 0.0742492824792862, 0.08176179230213165, 0.08927430212497711, 0.09678681194782257, 0.10429932177066803, 0.11181183159351349, 0.11932434141635895, 0.1268368512392044, 0.13434936106204987, 0.14186187088489532, 0.14937438070774078, 0.15688689053058624, 0.1643994003534317, 0.17191191017627716, 0.17942441999912262, 0.18693692982196808, 0.19444943964481354, 0.201961949467659, 0.20947445929050446, 0.21698696911334991, 0.22449947893619537, 0.23201198875904083, 0.2395244985818863]}, "_timestamp": 1599759720.8112266, "parameters/conv2.bias": {"_type": "histogram", "values": [1.0, 0.0, 0.0, 0.0, 0.0, 0.0, 0.0, 0.0, 0.0, 0.0, 0.0, 0.0, 0.0, 0.0, 0.0, 1.0, 0.0, 1.0, 0.0, 1.0, 0.0, 0.0, 2.0, 1.0, 4.0, 4.0, 3.0, 8.0, 9.0, 5.0, 10.0, 13.0, 6.0, 12.0, 3.0, 11.0, 5.0, 9.0, 5.0, 4.0, 3.0, 7.0, 7.0, 3.0, 2.0, 5.0, 2.0, 6.0, 6.0, 8.0, 4.0, 4.0, 3.0, 4.0, 6.0, 3.0, 1.0, 3.0, 1.0, 2.0, 0.0, 1.0, 0.0, 1.0], "bins": [-0.08934071660041809, -0.08687899261713028, -0.08441726863384247, -0.08195555210113525, -0.07949382811784744, -0.07703210413455963, -0.07457038760185242, -0.0721086636185646, -0.0696469396352768, -0.06718521565198898, -0.06472349166870117, -0.06226177513599396, -0.059800051152706146, -0.057338327169418335, -0.05487660691142082, -0.05241488665342331, -0.0499531626701355, -0.04749143868684769, -0.045029718428850174, -0.04256799817085266, -0.04010627418756485, -0.03764455020427704, -0.035182829946279526, -0.03272110968828201, -0.0302593857049942, -0.02779766358435154, -0.025335941463708878, -0.022874219343066216, -0.020412497222423553, -0.01795077510178089, -0.01548905298113823, -0.013027330860495567, -0.010565608739852905, -0.008103886619210243, -0.005642164498567581, -0.003180442377924919, -0.0007187202572822571, 0.001743001863360405, 0.004204723984003067, 0.006666446104645729, 0.009128168225288391, 0.011589890345931053, 0.014051612466573715, 0.016513334587216377, 0.01897505670785904, 0.0214367788285017, 0.023898500949144363, 0.026360223069787025, 0.028821945190429688, 0.0312836691737175, 0.03374538943171501, 0.036207109689712524, 0.038668833673000336, 0.04113055765628815, 0.04359227791428566, 0.04605399817228317, 0.048515722155570984, 0.050977446138858795, 0.05343916639685631, 0.05590088665485382, 0.05836261063814163, 0.06082433462142944, 0.06328605115413666, 0.06574777513742447, 0.06820949912071228]}, "parameters/linear2.bias": {"_type": "histogram", "values": [1.0, 0.0, 0.0, 0.0, 0.0, 0.0, 0.0, 0.0, 0.0, 0.0, 0.0, 0.0, 0.0, 0.0, 1.0, 1.0, 1.0, 1.0, 0.0, 2.0, 1.0, 1.0, 0.0, 3.0, 2.0, 4.0, 6.0, 5.0, 4.0, 2.0, 4.0, 3.0, 4.0, 7.0, 1.0, 2.0, 5.0, 1.0, 2.0, 2.0, 3.0, 1.0, 8.0, 2.0, 1.0, 2.0, 1.0, 2.0, 2.0, 2.0, 2.0, 2.0, 1.0, 0.0, 0.0, 0.0, 0.0, 2.0, 1.0, 0.0, 1.0, 0.0, 0.0, 1.0], "bins": [-0.34011146426200867, -0.33040034770965576, -0.32068920135498047, -0.31097808480262756, -0.30126693844795227, -0.29155582189559937, -0.2818446755409241, -0.27213355898857117, -0.2624224126338959, -0.25271129608154297, -0.24300016462802887, -0.23328903317451477, -0.22357790172100067, -0.21386677026748657, -0.20415563881397247, -0.19444450736045837, -0.18473337590694427, -0.17502224445343018, -0.16531111299991608, -0.15559998154640198, -0.14588885009288788, -0.13617771863937378, -0.12646658718585968, -0.11675546318292618, -0.10704433172941208, -0.09733320027589798, -0.08762206882238388, -0.07791093736886978, -0.06819981336593628, -0.05848867818713188, -0.04877755045890808, -0.03906641900539398, -0.029355287551879883, -0.019644156098365784, -0.009933026507496834, -0.0002218959853053093, 0.009489234536886215, 0.019200365990400314, 0.028911495581269264, 0.038622625172138214, 0.04833375662565231, 0.05804488807916641, 0.06775601953268051, 0.07746715098619461, 0.08717827498912811, 0.09688940644264221, 0.10660053789615631, 0.11631166934967041, 0.1260228008031845, 0.1357339322566986, 0.1454450637102127, 0.1551561951637268, 0.1648673266172409, 0.174578458070755, 0.1842895895242691, 0.1940007209777832, 0.2037118375301361, 0.2134229689836502, 0.2231341004371643, 0.2328452318906784, 0.2425563633441925, 0.2522675096988678, 0.2619786262512207, 0.271689772605896, 0.2814008891582489]}, "Accuracy per rule": {"width": 2000, "height": 1000, "format": "png", "count": 1, "_type": "images", "captions": ["Accuracy per rule"]}, "parameters/conv5.att_j": {"_type": "histogram", "values": [4.0, 2.0, 2.0, 6.0, 3.0, 0.0, 7.0, 3.0, 3.0, 3.0, 3.0, 5.0, 3.0, 2.0, 2.0, 1.0, 4.0, 5.0, 4.0, 3.0, 2.0, 1.0, 2.0, 5.0, 5.0, 3.0, 0.0, 3.0, 3.0, 4.0, 2.0, 1.0, 2.0, 5.0, 5.0, 4.0, 2.0, 3.0, 3.0, 4.0, 4.0, 6.0, 0.0, 2.0, 2.0, 2.0, 5.0, 0.0, 4.0, 1.0, 2.0, 1.0, 6.0, 3.0, 5.0, 5.0, 4.0, 3.0, 4.0, 1.0, 3.0, 5.0, 4.0, 4.0], "bins": [-0.23286709189414978, -0.22555357217788696, -0.21824005246162415, -0.21092653274536133, -0.2036130130290985, -0.1962994933128357, -0.18898598849773407, -0.18167246878147125, -0.17435894906520844, -0.16704542934894562, -0.1597319096326828, -0.15241838991641998, -0.14510487020015717, -0.13779135048389435, -0.13047783076763153, -0.12316431850194931, -0.11585079878568649, -0.10853727906942368, -0.10122375935316086, -0.09391024708747864, -0.08659672737121582, -0.079283207654953, -0.07196968793869019, -0.06465616822242737, -0.05734265223145485, -0.05002913251519203, -0.04271561652421951, -0.035402096807956696, -0.028088578954339027, -0.02077506110072136, -0.013461542315781116, -0.006148023996502161, 0.0011654943227767944, 0.008479012176394463, 0.01579253003001213, 0.023106049746274948, 0.030419567599892616, 0.037733085453510284, 0.0450466051697731, 0.05236012116074562, 0.05967364087700844, 0.06698715686798096, 0.07430067658424377, 0.08161419630050659, 0.08892771601676941, 0.09624123573303223, 0.10355474799871445, 0.11086826771497726, 0.11818178743124008, 0.1254952996969223, 0.13280881941318512, 0.14012233912944794, 0.14743585884571075, 0.15474937856197357, 0.1620628982782364, 0.1693764179944992, 0.17668993771076202, 0.18400345742702484, 0.19131697714328766, 0.19863048195838928, 0.2059440016746521, 0.21325752139091492, 0.22057104110717773, 0.22788456082344055, 0.23519808053970337]}, "parameters/conv2.lin.weight": {"_type": "histogram", "values": [2.0, 0.0, 0.0, 0.0, 0.0, 0.0, 0.0, 0.0, 0.0, 0.0, 0.0, 0.0, 0.0, 0.0, 1.0, 0.0, 2.0, 0.0, 0.0, 0.0, 1.0, 0.0, 0.0, 0.0, 0.0, 1.0, 3.0, 2.0, 2.0, 8.0, 3.0, 10.0, 7.0, 10.0, 22.0, 18.0, 29.0, 39.0, 88.0, 124.0, 227.0, 423.0, 1196.0, 3610.0, 6116.0, 7480.0, 7617.0, 6583.0, 3920.0, 1470.0, 576.0, 227.0, 84.0, 46.0, 24.0, 10.0, 6.0, 7.0, 1.0, 2.0, 0.0, 1.0, 1.0, 1.0], "bins": [-2.2578155994415283, -2.208526849746704, -2.15923810005188, -2.1099493503570557, -2.0606606006622314, -2.0113718509674072, -1.962083101272583, -1.9127943515777588, -1.8635056018829346, -1.8142167329788208, -1.7649279832839966, -1.7156392335891724, -1.6663504838943481, -1.617061734199524, -1.5677729845046997, -1.5184842348098755, -1.4691954851150513, -1.419906735420227, -1.3706179857254028, -1.3213292360305786, -1.2720404863357544, -1.2227517366409302, -1.173462986946106, -1.1241742372512817, -1.074885368347168, -1.0255966186523438, -0.9763079285621643, -0.9270191788673401, -0.8777303695678711, -0.8284416198730469, -0.7791528701782227, -0.7298641204833984, -0.6805753707885742, -0.63128662109375, -0.5819978713989258, -0.5327091217041016, -0.48342034220695496, -0.43413159251213074, -0.38484281301498413, -0.3355540633201599, -0.2862653136253357, -0.23697656393051147, -0.18768779933452606, -0.13839903473854065, -0.08911028504371643, -0.039821527898311615, 0.0094672292470932, 0.058755986392498016, 0.10804474353790283, 0.15733349323272705, 0.20662225782871246, 0.2559110224246979, 0.3051997721195221, 0.3544885218143463, 0.4037773013114929, 0.45306605100631714, 0.5023548007011414, 0.5516435503959656, 0.6009323000907898, 0.650221049785614, 0.699509859085083, 0.7487986087799072, 0.7980873584747314, 0.8473761081695557, 0.8966648578643799]}, "Validation Hard Accuracy": 0.1469140625, "_runtime": 3884.3789508342743, "parameters/conv3.bias": {"_type": "histogram", "values": [2.0, 1.0, 5.0, 1.0, 6.0, 2.0, 3.0, 2.0, 7.0, 3.0, 9.0, 6.0, 6.0, 4.0, 6.0, 9.0, 4.0, 5.0, 3.0, 9.0, 8.0, 5.0, 9.0, 3.0, 4.0, 3.0, 7.0, 6.0, 3.0, 2.0, 9.0, 2.0, 7.0, 6.0, 5.0, 6.0, 4.0, 10.0, 2.0, 0.0, 1.0, 0.0, 0.0, 1.0, 0.0, 0.0, 0.0, 0.0, 0.0, 0.0, 0.0, 0.0, 0.0, 1.0, 1.0, 1.0, 0.0, 0.0, 0.0, 0.0, 0.0, 0.0, 0.0, 1.0], "bins": [-0.06349820643663406, -0.060189418494701385, -0.056880634278059006, -0.053571850061416626, -0.05026306211948395, -0.04695427417755127, -0.04364548996090889, -0.04033670574426651, -0.03702791780233383, -0.033719129860401154, -0.030410345643758774, -0.027101559564471245, -0.023792773485183716, -0.020483987405896187, -0.017175201326608658, -0.013866415247321129, -0.0105576291680336, -0.007248843088746071, -0.003940057009458542, -0.0006312709301710129, 0.002677515149116516, 0.005986301228404045, 0.009295087307691574, 0.012603873386979103, 0.015912659466266632, 0.01922144554555416, 0.02253023162484169, 0.02583901770412922, 0.029147803783416748, 0.032456591725349426, 0.035765375941991806, 0.039074160158634186, 0.042382948100566864, 0.04569173604249954, 0.04900052025914192, 0.0523093044757843, 0.05561809241771698, 0.05892688035964966, 0.06223566457629204, 0.06554444879293442, 0.0688532367348671, 0.07216202467679977, 0.07547080516815186, 0.07877959311008453, 0.08208838105201721, 0.08539716899394989, 0.08870595693588257, 0.09201473742723465, 0.09532352536916733, 0.0986323133111, 0.10194109380245209, 0.10524988174438477, 0.10855866968631744, 0.11186745762825012, 0.1151762455701828, 0.11848502606153488, 0.12179381400346756, 0.12510259449481964, 0.12841138243675232, 0.131720170378685, 0.13502895832061768, 0.13833774626255035, 0.14164653420448303, 0.1449553221464157, 0.1482641100883484]}, "parameters/linear1.weight": {"_type": "histogram", "values": [1.0, 0.0, 0.0, 0.0, 0.0, 0.0, 0.0, 0.0, 1.0, 2.0, 1.0, 0.0, 0.0, 0.0, 1.0, 0.0, 0.0, 1.0, 1.0, 2.0, 0.0, 4.0, 2.0, 2.0, 1.0, 2.0, 4.0, 3.0, 13.0, 2.0, 9.0, 8.0, 11.0, 15.0, 26.0, 34.0, 37.0, 37.0, 85.0, 110.0, 201.0, 342.0, 1073.0, 3376.0, 4234.0, 4383.0, 3508.0, 1356.0, 589.0, 244.0, 114.0, 64.0, 32.0, 27.0, 11.0, 9.0, 7.0, 4.0, 2.0, 2.0, 4.0, 2.0, 0.0, 1.0], "bins": [-1.6669923067092896, -1.6300545930862427, -1.5931168794631958, -1.5561792850494385, -1.5192415714263916, -1.4823038578033447, -1.4453661441802979, -1.408428430557251, -1.371490716934204, -1.3345531225204468, -1.2976154088974, -1.260677695274353, -1.2237399816513062, -1.1868022680282593, -1.149864673614502, -1.112926959991455, -1.0759892463684082, -1.0390515327453613, -1.0021138191223145, -0.9651761651039124, -0.9282385110855103, -0.8913007974624634, -0.8543630838394165, -0.8174254298210144, -0.7804877161979675, -0.7435500025749207, -0.7066123485565186, -0.6696746349334717, -0.6327369213104248, -0.5957992672920227, -0.5588615536689758, -0.5219238996505737, -0.48498618602752686, -0.44804850220680237, -0.4111108183860779, -0.374173104763031, -0.3372354209423065, -0.30029773712158203, -0.26336002349853516, -0.22642233967781067, -0.18948465585708618, -0.1525469720363617, -0.11560927331447601, -0.07867158204317093, -0.041733890771865845, -0.0047961995005607605, 0.032141491770744324, 0.06907918304204941, 0.10601687431335449, 0.14295455813407898, 0.17989225685596466, 0.21682995557785034, 0.25376763939857483, 0.2907053232192993, 0.3276430368423462, 0.3645807206630707, 0.40151840448379517, 0.43845608830451965, 0.47539377212524414, 0.512331485748291, 0.5492691993713379, 0.58620685338974, 0.6231445670127869, 0.660082221031189, 0.6970199346542358]}, "parameters/conv5.lin.weight": {"_type": "histogram", "values": [1.0, 0.0, 0.0, 0.0, 0.0, 0.0, 0.0, 0.0, 0.0, 0.0, 0.0, 0.0, 0.0, 0.0, 1.0, 0.0, 1.0, 0.0, 0.0, 1.0, 3.0, 0.0, 2.0, 2.0, 4.0, 9.0, 8.0, 11.0, 14.0, 19.0, 28.0, 38.0, 43.0, 49.0, 77.0, 131.0, 205.0, 464.0, 1293.0, 4547.0, 6100.0, 6471.0, 6499.0, 6316.0, 4826.0, 1756.0, 623.0, 224.0, 87.0, 48.0, 36.0, 15.0, 18.0, 11.0, 4.0, 4.0, 6.0, 1.0, 1.0, 1.0, 0.0, 1.0, 0.0, 1.0], "bins": [-1.8387895822525024, -1.795129418373108, -1.7514692544937134, -1.7078090906143188, -1.6641489267349243, -1.6204887628555298, -1.5768287181854248, -1.5331685543060303, -1.4895083904266357, -1.4458482265472412, -1.4021880626678467, -1.3585278987884521, -1.3148677349090576, -1.271207571029663, -1.2275474071502686, -1.183887243270874, -1.1402270793914795, -1.0965670347213745, -1.05290687084198, -1.0092467069625854, -0.9655865430831909, -0.9219263792037964, -0.8782662153244019, -0.8346060514450073, -0.7909458875656128, -0.747285783290863, -0.7036256194114685, -0.659965455532074, -0.6163052916526794, -0.5726451277732849, -0.5289850234985352, -0.4853248596191406, -0.4416646957397461, -0.39800453186035156, -0.3543443977832794, -0.3106842339038849, -0.26702409982681274, -0.2233639359474182, -0.17970377206802368, -0.13604362308979034, -0.092383474111557, -0.04872332140803337, -0.005063168704509735, 0.0385969839990139, 0.08225713670253754, 0.12591728568077087, 0.1695774495601654, 0.21323759853839874, 0.2568977475166321, 0.3005579113960266, 0.34421804547309875, 0.3878782093524933, 0.43153834342956543, 0.47519850730895996, 0.5188586711883545, 0.562518835067749, 0.6061789989471436, 0.6498391032218933, 0.6934992671012878, 0.7371594309806824, 0.7808195948600769, 0.8244797587394714, 0.8681398630142212, 0.9118000268936157, 0.9554601907730103]}, "Validation Accuracy": 0.9002761314655172, "parameters/conv1.att_j": {"_type": "histogram", "values": [1.0, 0.0, 1.0, 0.0, 1.0, 1.0, 0.0, 1.0, 0.0, 1.0, 0.0, 2.0, 4.0, 1.0, 3.0, 4.0, 6.0, 2.0, 2.0, 9.0, 4.0, 6.0, 8.0, 5.0, 11.0, 8.0, 11.0, 6.0, 6.0, 6.0, 11.0, 12.0, 6.0, 10.0, 4.0, 2.0, 4.0, 5.0, 1.0, 3.0, 2.0, 4.0, 4.0, 4.0, 1.0, 2.0, 1.0, 2.0, 3.0, 1.0, 0.0, 2.0, 0.0, 0.0, 0.0, 0.0, 2.0, 0.0, 1.0, 0.0, 1.0, 0.0, 0.0, 2.0], "bins": [-0.3361794650554657, -0.324223130941391, -0.31226682662963867, -0.30031049251556396, -0.28835418820381165, -0.27639785408973694, -0.26444151997566223, -0.2524852156639099, -0.2405288815498352, -0.2285725623369217, -0.21661624312400818, -0.20465992391109467, -0.19270360469818115, -0.18074728548526764, -0.16879095137119293, -0.15683463215827942, -0.1448783129453659, -0.1329219937324524, -0.12096566706895828, -0.10900934785604477, -0.09705302119255066, -0.08509670197963715, -0.07314038276672363, -0.06118405982851982, -0.04922773689031601, -0.0372714139521122, -0.025315092876553535, -0.013358770869672298, -0.0014024488627910614, 0.010553873144090176, 0.022510195150971413, 0.034466516226530075, 0.04642283916473389, 0.0583791621029377, 0.07033548504114151, 0.08229180425405502, 0.09424813091754913, 0.10620445013046265, 0.11816076934337616, 0.13011708855628967, 0.14207342267036438, 0.1540297418832779, 0.1659860610961914, 0.17794238030910492, 0.18989869952201843, 0.20185501873493195, 0.21381135284900665, 0.22576767206192017, 0.23772399127483368, 0.2496803104877472, 0.2616366446018219, 0.2735929489135742, 0.2855492830276489, 0.29750558733940125, 0.30946192145347595, 0.32141825556755066, 0.333374559879303, 0.3453308939933777, 0.35728719830513, 0.3692435324192047, 0.3811998665332794, 0.39315617084503174, 0.40511250495910645, 0.41706880927085876, 0.42902514338493347]}, "parameters/conv1.att_i": {"_type": "histogram", "values": [1.0, 0.0, 0.0, 0.0, 0.0, 1.0, 0.0, 0.0, 0.0, 1.0, 0.0, 0.0, 5.0, 2.0, 0.0, 0.0, 3.0, 7.0, 4.0, 1.0, 3.0, 2.0, 2.0, 4.0, 0.0, 5.0, 3.0, 5.0, 3.0, 5.0, 6.0, 5.0, 5.0, 4.0, 13.0, 6.0, 2.0, 7.0, 7.0, 7.0, 6.0, 9.0, 5.0, 7.0, 7.0, 8.0, 5.0, 3.0, 1.0, 3.0, 4.0, 5.0, 1.0, 2.0, 1.0, 3.0, 4.0, 1.0, 1.0, 2.0, 1.0, 0.0, 1.0, 1.0], "bins": [-0.47023358941078186, -0.45670589804649353, -0.4431781768798828, -0.4296504855155945, -0.41612279415130615, -0.4025951027870178, -0.3890674114227295, -0.3755396902561188, -0.36201199889183044, -0.3484843075275421, -0.3349565863609314, -0.32142889499664307, -0.30790120363235474, -0.2943735122680664, -0.2808458209037781, -0.26731809973716736, -0.25379040837287903, -0.2402627170085907, -0.22673501074314117, -0.21320730447769165, -0.19967961311340332, -0.186151921749115, -0.17262421548366547, -0.15909650921821594, -0.1455688178539276, -0.13204112648963928, -0.11851342022418976, -0.10498572140932083, -0.0914580225944519, -0.07793032377958298, -0.06440262496471405, -0.05087492614984512, -0.037347227334976196, -0.02381952852010727, -0.010291829705238342, 0.0032358691096305847, 0.01676356792449951, 0.03029126673936844, 0.043818965554237366, 0.05734666436910629, 0.07087436318397522, 0.08440206199884415, 0.09792976081371307, 0.111457459628582, 0.12498515844345093, 0.13851284980773926, 0.15204055607318878, 0.1655682623386383, 0.17909595370292664, 0.19262364506721497, 0.2061513513326645, 0.219679057598114, 0.23320674896240234, 0.24673444032669067, 0.260262131690979, 0.2737898528575897, 0.28731754422187805, 0.3008452355861664, 0.3143729567527771, 0.32790064811706543, 0.34142833948135376, 0.3549560308456421, 0.3684837222099304, 0.38201144337654114, 0.39553913474082947]}, "parameters/conv2.att_j": {"_type": "histogram", "values": [1.0, 1.0, 2.0, 0.0, 1.0, 0.0, 0.0, 0.0, 0.0, 5.0, 2.0, 1.0, 0.0, 0.0, 2.0, 0.0, 4.0, 3.0, 3.0, 1.0, 6.0, 9.0, 3.0, 4.0, 2.0, 8.0, 5.0, 2.0, 0.0, 4.0, 5.0, 7.0, 7.0, 7.0, 10.0, 5.0, 11.0, 8.0, 5.0, 7.0, 3.0, 2.0, 5.0, 8.0, 5.0, 0.0, 5.0, 4.0, 5.0, 2.0, 4.0, 4.0, 0.0, 1.0, 3.0, 0.0, 1.0, 2.0, 1.0, 0.0, 1.0, 1.0, 1.0, 1.0], "bins": [-1.918562889099121, -1.8649605512619019, -1.8113582134246826, -1.757755994796753, -1.7041536569595337, -1.6505513191223145, -1.5969491004943848, -1.5433467626571655, -1.4897444248199463, -1.436142086982727, -1.3825397491455078, -1.3289375305175781, -1.2753351926803589, -1.2217328548431396, -1.16813063621521, -1.1145282983779907, -1.0609259605407715, -1.0073236227035522, -0.9537213444709778, -0.9001190662384033, -0.8465167284011841, -0.7929143905639648, -0.7393121123313904, -0.6857098340988159, -0.6321074962615967, -0.5785051584243774, -0.524902880191803, -0.47130057215690613, -0.4176982641220093, -0.3640959560871124, -0.3104936480522156, -0.2568913400173187, -0.20328903198242188, -0.14968672394752502, -0.09608441591262817, -0.04248210787773132, 0.011120200157165527, 0.06472250819206238, 0.11832481622695923, 0.17192712426185608, 0.22552943229675293, 0.2791317403316498, 0.33273404836654663, 0.3863363564014435, 0.43993866443634033, 0.4935409724712372, 0.547143280506134, 0.6007455587387085, 0.6543478965759277, 0.707950234413147, 0.7615525126457214, 0.8151547908782959, 0.8687571287155151, 0.9223594665527344, 0.9759617447853088, 1.0295640230178833, 1.0831663608551025, 1.1367686986923218, 1.190371036529541, 1.2439732551574707, 1.29757559299469, 1.3511779308319092, 1.4047801494598389, 1.458382487297058, 1.5119848251342773]}, "parameters/linear3.weight": {"_type": "histogram", "values": [1.0, 0.0, 0.0, 1.0, 0.0, 0.0, 0.0, 1.0, 1.0, 0.0, 0.0, 1.0, 0.0, 2.0, 0.0, 1.0, 0.0, 1.0, 4.0, 4.0, 4.0, 2.0, 3.0, 2.0, 2.0, 4.0, 6.0, 2.0, 4.0, 2.0, 6.0, 9.0, 9.0, 11.0, 13.0, 15.0, 17.0, 26.0, 26.0, 23.0, 44.0, 87.0, 140.0, 236.0, 350.0, 539.0, 500.0, 339.0, 224.0, 96.0, 62.0, 27.0, 21.0, 14.0, 8.0, 2.0, 3.0, 1.0, 0.0, 1.0, 1.0, 0.0, 1.0, 1.0], "bins": [-1.39876127243042, -1.3683046102523804, -1.3378478288650513, -1.3073911666870117, -1.2769343852996826, -1.246477723121643, -1.216020941734314, -1.1855642795562744, -1.1551076173782349, -1.1246508359909058, -1.0941941738128662, -1.063737392425537, -1.0332807302474976, -1.002824068069458, -0.9723672866821289, -0.9419105648994446, -0.9114538431167603, -0.8809971809387207, -0.8505404591560364, -0.820083737373352, -0.7896270155906677, -0.7591702938079834, -0.7287135720252991, -0.6982569098472595, -0.6678001880645752, -0.6373434662818909, -0.6068867444992065, -0.5764300227165222, -0.5459733009338379, -0.5155166387557983, -0.4850598871707916, -0.4546031951904297, -0.42414647340774536, -0.39368975162506104, -0.3632330596446991, -0.33277633786201477, -0.30231961607933044, -0.2718629240989685, -0.24140620231628418, -0.21094948053359985, -0.18049277365207672, -0.1500360667705536, -0.11957934498786926, -0.08912263810634613, -0.0586659237742424, -0.02820921130478382, 0.002247501164674759, 0.03270421177148819, 0.06316092610359192, 0.09361764043569565, 0.12407435476779938, 0.1545310616493225, 0.18498778343200684, 0.21544449031352997, 0.2459011971950531, 0.2763579189777374, 0.30681461095809937, 0.3372713327407837, 0.367728054523468, 0.39818477630615234, 0.4286414682865143, 0.4590981900691986, 0.48955491185188293, 0.5200116038322449, 0.5504683256149292]}, "gradients/conv3.att_i": {"_type": "histogram", "values": [1.0, 0.0, 0.0, 0.0, 0.0, 0.0, 0.0, 0.0, 0.0, 0.0, 0.0, 1.0, 0.0, 0.0, 0.0, 0.0, 0.0, 0.0, 4.0, 0.0, 0.0, 0.0, 5.0, 0.0, 1.0, 1.0, 3.0, 0.0, 7.0, 2.0, 11.0, 6.0, 29.0, 53.0, 25.0, 18.0, 4.0, 7.0, 0.0, 2.0, 1.0, 7.0, 0.0, 3.0, 0.0, 5.0, 0.0, 0.0, 1.0, 0.0, 0.0, 0.0, 0.0, 0.0, 0.0, 0.0, 1.0, 0.0, 0.0, 0.0, 1.0, 0.0, 0.0, 1.0], "bins": [-2.1457672119140625e-06, -2.08243727684021e-06, -2.0191073417663574e-06, -1.955777406692505e-06, -1.8924474716186523e-06, -1.8291175365447998e-06, -1.7657876014709473e-06, -1.7024576663970947e-06, -1.6391277313232422e-06, -1.5757977962493896e-06, -1.5124678611755371e-06, -1.4491379261016846e-06, -1.385807991027832e-06, -1.3224780559539795e-06, -1.259148120880127e-06, -1.1958181858062744e-06, -1.1324882507324219e-06, -1.0691583156585693e-06, -1.0058283805847168e-06, -9.424984455108643e-07, -8.791685104370117e-07, -8.158385753631592e-07, -7.525086402893066e-07, -6.891787052154541e-07, -6.258487701416016e-07, -5.62518835067749e-07, -4.991888999938965e-07, -4.3585896492004395e-07, -3.725290298461914e-07, -3.0919909477233887e-07, -2.4586915969848633e-07, -1.825392246246338e-07, -1.1920928955078125e-07, -5.587935447692871e-08, 7.450580596923828e-09, 7.078051567077637e-08, 1.341104507446289e-07, 1.9744038581848145e-07, 2.60770320892334e-07, 3.241002559661865e-07, 3.8743019104003906e-07, 4.507601261138916e-07, 5.140900611877441e-07, 5.774199962615967e-07, 6.407499313354492e-07, 7.040798664093018e-07, 7.674098014831543e-07, 8.307397365570068e-07, 8.940696716308594e-07, 9.57399606704712e-07, 1.0207295417785645e-06, 1.084059476852417e-06, 1.1473894119262695e-06, 1.210719347000122e-06, 1.2740492820739746e-06, 1.3373792171478271e-06, 1.4007091522216797e-06, 1.4640390872955322e-06, 1.5273690223693848e-06, 1.5906989574432373e-06, 1.6540288925170898e-06, 1.7173588275909424e-06, 1.780688762664795e-06, 1.8440186977386475e-06, 1.9073486328125e-06]}, "gradients/conv4.lin.weight": {"_type": "histogram", "values": [1.0, 2.0, 0.0, 4.0, 2.0, 1.0, 2.0, 2.0, 4.0, 1.0, 14.0, 15.0, 13.0, 23.0, 25.0, 39.0, 46.0, 41.0, 72.0, 93.0, 116.0, 155.0, 182.0, 229.0, 311.0, 438.0, 585.0, 856.0, 1193.0, 1744.0, 2658.0, 4203.0, 18741.0, 2260.0, 1525.0, 1066.0, 838.0, 646.0, 485.0, 370.0, 231.0, 208.0, 138.0, 99.0, 70.0, 54.0, 59.0, 47.0, 28.0, 14.0, 9.0, 8.0, 9.0, 10.0, 3.0, 4.0, 1.0, 3.0, 1.0, 0.0, 0.0, 1.0, 0.0, 2.0], "bins": [-318.4249267578125, -308.5330810546875, -298.6412658691406, -288.7494201660156, -278.85760498046875, -268.96575927734375, -259.0739440917969, -249.18211364746094, -239.290283203125, -229.3984375, -219.50660705566406, -209.61477661132812, -199.7229461669922, -189.83111572265625, -179.9392852783203, -170.04745483398438, -160.15562438964844, -150.2637939453125, -140.37196350097656, -130.48013305664062, -120.58830261230469, -110.69646453857422, -100.80463409423828, -90.91280364990234, -81.0209732055664, -71.12914276123047, -61.23731231689453, -51.34547805786133, -41.45364761352539, -31.561817169189453, -21.669984817504883, -11.778153419494629, -1.886322021484375, 8.005509376525879, 17.897340774536133, 27.789173126220703, 37.68100357055664, 47.57283401489258, 57.46466827392578, 67.35649871826172, 77.24832916259766, 87.1401596069336, 97.03199005126953, 106.92382049560547, 116.81565856933594, 126.70748901367188, 136.5993194580078, 146.49114990234375, 156.3829803466797, 166.27481079101562, 176.16664123535156, 186.0584716796875, 195.95030212402344, 205.84213256835938, 215.7339630126953, 225.62579345703125, 235.51763916015625, 245.4094696044922, 255.30130004882812, 265.193115234375, 275.0849609375, 284.9767761230469, 294.8686218261719, 304.76043701171875, 314.65228271484375]}, "gradients/linear1.bias": {"_type": "histogram", "values": [1.0, 0.0, 0.0, 2.0, 0.0, 0.0, 1.0, 1.0, 1.0, 2.0, 0.0, 1.0, 0.0, 0.0, 1.0, 1.0, 0.0, 1.0, 0.0, 0.0, 0.0, 4.0, 4.0, 0.0, 0.0, 5.0, 1.0, 1.0, 38.0, 5.0, 4.0, 2.0, 2.0, 2.0, 4.0, 1.0, 2.0, 3.0, 1.0, 1.0, 2.0, 0.0, 0.0, 0.0, 0.0, 0.0, 2.0, 0.0, 0.0, 1.0, 1.0, 0.0, 0.0, 0.0, 0.0, 0.0, 0.0, 0.0, 0.0, 1.0, 0.0, 0.0, 0.0, 1.0], "bins": [-24.732532501220703, -23.86603546142578, -22.99953842163086, -22.133041381835938, -21.266544342041016, -20.40004539489746, -19.53354835510254, -18.667051315307617, -17.800554275512695, -16.934057235717773, -16.06756019592285, -15.201062202453613, -14.334565162658691, -13.46806812286377, -12.601570129394531, -11.73507308959961, -10.868576049804688, -10.002079010009766, -9.135581970214844, -8.269083976745605, -7.402586936950684, -6.536089897155762, -5.669592380523682, -4.803094863891602, -3.9365978240966797, -3.0701005458831787, -2.2036032676696777, -1.3371059894561768, -0.4706087112426758, 0.3958885669708252, 1.2623858451843262, 2.128883123397827, 2.995380401611328, 3.861877679824829, 4.72837495803833, 5.59487247467041, 6.461369514465332, 7.327866554260254, 8.194364547729492, 9.060861587524414, 9.927358627319336, 10.793855667114258, 11.66035270690918, 12.526850700378418, 13.39334774017334, 14.259844779968262, 15.1263427734375, 15.992839813232422, 16.859336853027344, 17.725833892822266, 18.592330932617188, 19.45882797241211, 20.32532501220703, 21.191823959350586, 22.058320999145508, 22.92481803894043, 23.79131507873535, 24.657812118530273, 25.524309158325195, 26.390806198120117, 27.257305145263672, 28.123802185058594, 28.990299224853516, 29.856796264648438, 30.72329330444336]}, "gradients/conv1.att_j": {"_type": "histogram", "values": [1.0, 0.0, 2.0, 0.0, 1.0, 1.0, 2.0, 1.0, 0.0, 3.0, 3.0, 5.0, 10.0, 11.0, 7.0, 5.0, 13.0, 30.0, 16.0, 21.0, 15.0, 9.0, 6.0, 5.0, 7.0, 8.0, 4.0, 0.0, 3.0, 2.0, 1.0, 1.0, 1.0, 1.0, 1.0, 1.0, 1.0, 0.0, 0.0, 0.0, 0.0, 0.0, 0.0, 0.0, 0.0, 1.0, 0.0, 0.0, 0.0, 0.0, 0.0, 0.0, 0.0, 0.0, 0.0, 0.0, 0.0, 0.0, 0.0, 0.0, 0.0, 0.0, 0.0, 1.0], "bins": [-689.4314575195312, -651.3384399414062, -613.245361328125, -575.15234375, -537.059326171875, -498.9662780761719, -460.87322998046875, -422.78021240234375, -384.6871643066406, -346.5941162109375, -308.5010986328125, -270.4080505371094, -232.3150177001953, -194.22198486328125, -156.12893676757812, -118.03590393066406, -79.94287109375, -41.84983444213867, -3.7567977905273438, 34.336238861083984, 72.42927551269531, 110.52230834960938, 148.6153564453125, 186.70838928222656, 224.80142211914062, 262.89447021484375, 300.98748779296875, 339.0805358886719, 377.173583984375, 415.2666015625, 453.3596496582031, 491.4526672363281, 529.5457153320312, 567.6387329101562, 605.7318115234375, 643.8248291015625, 681.9178466796875, 720.0109252929688, 758.1039428710938, 796.1969604492188, 834.2900390625, 872.383056640625, 910.47607421875, 948.569091796875, 986.6621704101562, 1024.7552490234375, 1062.8482666015625, 1100.9412841796875, 1139.0343017578125, 1177.1273193359375, 1215.2203369140625, 1253.3133544921875, 1291.406494140625, 1329.49951171875, 1367.592529296875, 1405.685546875, 1443.778564453125, 1481.87158203125, 1519.9647216796875, 1558.0577392578125, 1596.1507568359375, 1634.2437744140625, 1672.3367919921875, 1710.4298095703125, 1748.52294921875]}, "gradients/linear3.bias": {"_type": "histogram", "values": [1.0, 0.0, 0.0, 0.0, 0.0, 0.0, 0.0, 0.0, 1.0, 1.0, 0.0, 1.0, 0.0, 1.0, 0.0, 0.0, 0.0, 0.0, 0.0, 0.0, 1.0, 0.0, 0.0, 0.0, 0.0, 0.0, 0.0, 1.0, 0.0, 1.0, 1.0, 3.0, 1.0, 0.0, 3.0, 1.0, 2.0, 1.0, 0.0, 0.0, 3.0, 0.0, 0.0, 1.0, 0.0, 0.0, 1.0, 1.0, 1.0, 0.0, 0.0, 1.0, 0.0, 0.0, 0.0, 0.0, 0.0, 0.0, 0.0, 0.0, 0.0, 0.0, 0.0, 1.0], "bins": [-109.96646118164062, -106.79061889648438, -103.61477661132812, -100.43893432617188, -97.26309204101562, -94.08724975585938, -90.91141510009766, -87.7355728149414, -84.55973052978516, -81.3838882446289, -78.20804595947266, -75.0322036743164, -71.85636138916016, -68.6805191040039, -65.50467681884766, -62.32883834838867, -59.15299606323242, -55.97715377807617, -52.80131149291992, -49.62547302246094, -46.44963073730469, -43.27378845214844, -40.09794616699219, -36.92210388183594, -33.74626159667969, -30.57042121887207, -27.394580841064453, -24.218738555908203, -21.042896270751953, -17.867055892944336, -14.691213607788086, -11.515372276306152, -8.339530944824219, -5.163689613342285, -1.9878478050231934, 1.1879937648773193, 4.363835334777832, 7.539676666259766, 10.715518951416016, 13.89136028289795, 17.067201614379883, 20.243043899536133, 23.41888427734375, 26.5947265625, 29.77056884765625, 32.9464111328125, 36.122249603271484, 39.298091888427734, 42.473934173583984, 45.649776458740234, 48.825618743896484, 52.00145721435547, 55.17729949951172, 58.35314178466797, 61.52898406982422, 64.70482635498047, 67.88066864013672, 71.05651092529297, 74.23235321044922, 77.40818786621094, 80.58403015136719, 83.75987243652344, 86.93571472167969, 90.11155700683594, 93.28739929199219]}, "gradients/conv2.att_i": {"_type": "histogram", "values": [2.0, 0.0, 2.0, 0.0, 1.0, 0.0, 0.0, 2.0, 0.0, 1.0, 3.0, 4.0, 4.0, 6.0, 5.0, 5.0, 2.0, 7.0, 4.0, 9.0, 4.0, 3.0, 3.0, 6.0, 4.0, 3.0, 83.0, 19.0, 6.0, 4.0, 1.0, 0.0, 0.0, 1.0, 1.0, 0.0, 0.0, 1.0, 0.0, 0.0, 1.0, 1.0, 0.0, 0.0, 1.0, 0.0, 0.0, 0.0, 0.0, 0.0, 0.0, 0.0, 0.0, 0.0, 0.0, 0.0, 0.0, 0.0, 0.0, 0.0, 0.0, 0.0, 0.0, 1.0], "bins": [-15.756875038146973, -15.170738220214844, -14.584601402282715, -13.998464584350586, -13.412327766418457, -12.826190948486328, -12.2400541305542, -11.65391731262207, -11.067779541015625, -10.481642723083496, -9.895505905151367, -9.309369087219238, -8.72323226928711, -8.13709545135498, -7.550958633422852, -6.964821815490723, -6.378684997558594, -5.792548179626465, -5.206411361694336, -4.620274543762207, -4.034137725830078, -3.44800066947937, -2.861863613128662, -2.275726795196533, -1.6895899772644043, -1.1034531593322754, -0.5173162221908569, 0.06882065534591675, 0.6549575328826904, 1.2410943508148193, 1.8272312879562378, 2.4133682250976562, 2.999505043029785, 3.585641860961914, 4.171778678894043, 4.757915496826172, 5.344052314758301, 5.930189609527588, 6.516326427459717, 7.102463245391846, 7.688600063323975, 8.274737358093262, 8.86087417602539, 9.44701099395752, 10.033147811889648, 10.619284629821777, 11.205421447753906, 11.791558265686035, 12.377695083618164, 12.963831901550293, 13.549968719482422, 14.13610553741455, 14.72224235534668, 15.308379173278809, 15.894515991210938, 16.480653762817383, 17.066789627075195, 17.65292739868164, 18.239063262939453, 18.8252010345459, 19.41133689880371, 19.997474670410156, 20.58361053466797, 21.169748306274414, 21.75588607788086]}, "gradients/conv4.att_i": {"_type": "histogram", "values": [1.0, 0.0, 0.0, 0.0, 1.0, 0.0, 0.0, 0.0, 0.0, 3.0, 0.0, 0.0, 0.0, 4.0, 0.0, 1.0, 0.0, 1.0, 10.0, 3.0, 3.0, 0.0, 4.0, 8.0, 3.0, 16.0, 21.0, 31.0, 4.0, 20.0, 19.0, 5.0, 13.0, 3.0, 4.0, 0.0, 2.0, 4.0, 1.0, 1.0, 0.0, 3.0, 0.0, 3.0, 0.0, 0.0, 1.0, 0.0, 0.0, 0.0, 2.0, 0.0, 0.0, 1.0, 1.0, 0.0, 0.0, 0.0, 0.0, 0.0, 1.0, 0.0, 1.0, 1.0], "bins": [-2.1827872842550278e-11, -2.1046275833214168e-11, -2.0264678823878057e-11, -1.9483081814541947e-11, -1.8701484805205837e-11, -1.7919887795869727e-11, -1.7138290786533616e-11, -1.6356693777197506e-11, -1.5575096767861396e-11, -1.4793499758525286e-11, -1.4011902749189176e-11, -1.3230305739853065e-11, -1.2448708730516955e-11, -1.1667111721180845e-11, -1.0885514711844735e-11, -1.0103917702508625e-11, -9.322320693172514e-12, -8.540723683836404e-12, -7.759126674500294e-12, -6.977529665164184e-12, -6.195932655828074e-12, -5.4143356464919634e-12, -4.632738637155853e-12, -3.851141627819743e-12, -3.069544618483633e-12, -2.2879476091475226e-12, -1.5063505998114124e-12, -7.247535904753022e-13, 5.684341886080802e-14, 8.384404281969182e-13, 1.6200374375330284e-12, 2.4016344468691386e-12, 3.183231456205249e-12, 3.964828465541359e-12, 4.746425474877469e-12, 5.5280224842135794e-12, 6.30961949354969e-12, 7.0912165028858e-12, 7.87281351222191e-12, 8.65441052155802e-12, 9.43600753089413e-12, 1.021760454023024e-11, 1.0999201549566351e-11, 1.1780798558902461e-11, 1.2562395568238571e-11, 1.3343992577574681e-11, 1.4125589586910792e-11, 1.4907186596246902e-11, 1.5688783605583012e-11, 1.6470380614919122e-11, 1.7251977624255233e-11, 1.8033574633591343e-11, 1.8815171642927453e-11, 1.9596768652263563e-11, 2.0378365661599673e-11, 2.1159962670935784e-11, 2.1941559680271894e-11, 2.2723156689608004e-11, 2.3504753698944114e-11, 2.4286350708280224e-11, 2.5067947717616335e-11, 2.5849544726952445e-11, 2.6631141736288555e-11, 2.7412738745624665e-11, 2.8194335754960775e-11]}, "gradients/conv2.att_j": {"_type": "histogram", "values": [1.0, 0.0, 0.0, 0.0, 0.0, 0.0, 0.0, 1.0, 0.0, 0.0, 0.0, 1.0, 0.0, 0.0, 2.0, 1.0, 0.0, 1.0, 3.0, 3.0, 1.0, 7.0, 13.0, 10.0, 15.0, 9.0, 10.0, 9.0, 16.0, 11.0, 7.0, 14.0, 12.0, 8.0, 7.0, 6.0, 3.0, 3.0, 4.0, 3.0, 5.0, 1.0, 1.0, 3.0, 2.0, 2.0, 0.0, 2.0, 0.0, 0.0, 0.0, 0.0, 0.0, 0.0, 0.0, 0.0, 0.0, 0.0, 1.0, 1.0, 0.0, 0.0, 0.0, 1.0], "bins": [-26.715850830078125, -25.874052047729492, -25.03225326538086, -24.190454483032227, -23.348655700683594, -22.50685691833496, -21.665058135986328, -20.823259353637695, -19.981460571289062, -19.139659881591797, -18.297861099243164, -17.45606231689453, -16.6142635345459, -15.772464752197266, -14.930665969848633, -14.0888671875, -13.247068405151367, -12.405269622802734, -11.563470840454102, -10.721672058105469, -9.879873275756836, -9.038073539733887, -8.196274757385254, -7.354475975036621, -6.512677192687988, -5.6708784103393555, -4.829079627990723, -3.9872803688049316, -3.145481586456299, -2.303682804107666, -1.461883783340454, -0.6200848817825317, 0.22171401977539062, 1.063512921333313, 1.9053118228912354, 2.7471108436584473, 3.58890962600708, 4.430708408355713, 5.272507667541504, 6.114306449890137, 6.9561052322387695, 7.797904014587402, 8.639702796936035, 9.481501579284668, 10.323301315307617, 11.16510009765625, 12.006898880004883, 12.848697662353516, 13.690496444702148, 14.532295227050781, 15.374094009399414, 16.215892791748047, 17.05769157409668, 17.899490356445312, 18.741289138793945, 19.583087921142578, 20.424888610839844, 21.266687393188477, 22.10848617553711, 22.950284957885742, 23.792083740234375, 24.633882522583008, 25.47568130493164, 26.317480087280273, 27.159278869628906]}, "gradients/conv1.lin.weight": {"_type": "histogram", "values": [3.0, 1.0, 0.0, 4.0, 6.0, 3.0, 1.0, 1.0, 3.0, 2.0, 1.0, 11.0, 4.0, 6.0, 5.0, 7.0, 10.0, 6.0, 7.0, 13.0, 19.0, 24.0, 16.0, 22.0, 40.0, 42.0, 35.0, 56.0, 56.0, 68.0, 56.0, 87.0, 90.0, 92.0, 153.0, 151.0, 177.0, 325.0, 403.0, 514.0, 699.0, 1074.0, 2479.0, 14532.0, 35097.0, 7710.0, 1429.0, 442.0, 232.0, 211.0, 168.0, 106.0, 81.0, 83.0, 82.0, 37.0, 49.0, 39.0, 41.0, 51.0, 29.0, 0.0, 6.0, 3.0], "bins": [-1689.54345703125, -1651.5411376953125, -1613.5386962890625, -1575.536376953125, -1537.533935546875, -1499.5316162109375, -1461.529296875, -1423.52685546875, -1385.5245361328125, -1347.5220947265625, -1309.519775390625, -1271.5174560546875, -1233.5150146484375, -1195.5126953125, -1157.51025390625, -1119.5079345703125, -1081.505615234375, -1043.503173828125, -1005.5007934570312, -967.4984741210938, -929.49609375, -891.4937133789062, -853.4913330078125, -815.4889526367188, -777.486572265625, -739.4842529296875, -701.4818725585938, -663.4794921875, -625.4771118164062, -587.4747314453125, -549.472412109375, -511.47003173828125, -473.4676513671875, -435.46527099609375, -397.4629211425781, -359.4605407714844, -321.45819091796875, -283.455810546875, -245.45343017578125, -207.45106506347656, -169.44869995117188, -131.4463348388672, -93.44396209716797, -55.441593170166016, -17.439224243164062, 20.56314468383789, 58.565513610839844, 96.56788635253906, 134.57025146484375, 172.57261657714844, 210.57498168945312, 248.57736206054688, 286.5797119140625, 324.58209228515625, 362.58447265625, 400.5868225097656, 438.5892028808594, 476.5915832519531, 514.5939331054688, 552.5963134765625, 590.5986938476562, 628.60107421875, 666.6033935546875, 704.6057739257812, 742.608154296875]}, "gradients/conv1.att_i": {"_type": "histogram", "values": [1.0, 0.0, 0.0, 0.0, 0.0, 1.0, 0.0, 0.0, 0.0, 0.0, 1.0, 0.0, 4.0, 4.0, 3.0, 1.0, 1.0, 4.0, 3.0, 3.0, 8.0, 6.0, 8.0, 6.0, 13.0, 6.0, 16.0, 9.0, 8.0, 11.0, 8.0, 6.0, 6.0, 12.0, 6.0, 4.0, 4.0, 8.0, 4.0, 4.0, 4.0, 3.0, 3.0, 0.0, 2.0, 1.0, 0.0, 1.0, 3.0, 0.0, 0.0, 2.0, 0.0, 0.0, 0.0, 0.0, 0.0, 0.0, 0.0, 0.0, 0.0, 1.0, 0.0, 1.0], "bins": [-304.7706298828125, -293.8528747558594, -282.93511962890625, -272.01739501953125, -261.0996398925781, -250.181884765625, -239.26414489746094, -228.3463897705078, -217.42864990234375, -206.51089477539062, -195.5931396484375, -184.67539978027344, -173.7576446533203, -162.83990478515625, -151.92214965820312, -141.00440979003906, -130.08665466308594, -119.16890716552734, -108.25115966796875, -97.33341217041016, -86.41566467285156, -75.49790954589844, -64.58016204833984, -53.66241455078125, -42.744667053222656, -31.826919555664062, -20.909170150756836, -9.991421699523926, 0.9263267517089844, 11.844075202941895, 22.761823654174805, 33.67957305908203, 44.597320556640625, 55.51506805419922, 66.43281555175781, 77.3505630493164, 88.268310546875, 99.18606567382812, 110.10381317138672, 121.02156066894531, 131.93930053710938, 142.8570556640625, 153.77481079101562, 164.6925506591797, 175.6103057861328, 186.52804565429688, 197.44580078125, 208.36354064941406, 219.2812957763672, 230.1990509033203, 241.11679077148438, 252.0345458984375, 262.9523010253906, 273.8700256347656, 284.78778076171875, 295.7055358886719, 306.623291015625, 317.5410461425781, 328.4587707519531, 339.37652587890625, 350.2942810058594, 361.2120361328125, 372.1297607421875, 383.0475158691406, 393.96527099609375]}, "gradients/conv3.lin.weight": {"_type": "histogram", "values": [2.0, 0.0, 1.0, 2.0, 1.0, 1.0, 1.0, 5.0, 7.0, 8.0, 9.0, 7.0, 24.0, 27.0, 35.0, 62.0, 126.0, 199.0, 367.0, 735.0, 1445.0, 2759.0, 6029.0, 17618.0, 5658.0, 2437.0, 1115.0, 537.0, 278.0, 137.0, 109.0, 65.0, 32.0, 22.0, 18.0, 18.0, 15.0, 14.0, 9.0, 13.0, 7.0, 4.0, 7.0, 5.0, 6.0, 1.0, 2.0, 5.0, 2.0, 4.0, 2.0, 1.0, 1.0, 0.0, 2.0, 0.0, 0.0, 2.0, 0.0, 0.0, 0.0, 1.0, 0.0, 1.0], "bins": [-571.2678833007812, -546.9651489257812, -522.662353515625, -498.3595886230469, -474.05682373046875, -449.7540588378906, -425.4512939453125, -401.1485290527344, -376.84576416015625, -352.54302978515625, -328.2402648925781, -303.9375, -279.6347351074219, -255.33197021484375, -231.02920532226562, -206.7264404296875, -182.42367553710938, -158.12091064453125, -133.81814575195312, -109.51538848876953, -85.2126235961914, -60.90985870361328, -36.60709762573242, -12.30433464050293, 11.998428344726562, 36.30119323730469, 60.60395431518555, 84.9067153930664, 109.20948028564453, 133.51223754882812, 157.81500244140625, 182.11776733398438, 206.4205322265625, 230.72329711914062, 255.02606201171875, 279.3288269042969, 303.631591796875, 327.9343566894531, 352.23712158203125, 376.5398864746094, 400.8426513671875, 425.1453857421875, 449.4481506347656, 473.75091552734375, 498.0536804199219, 522.3564453125, 546.6592407226562, 570.9619750976562, 595.2647705078125, 619.5675048828125, 643.8702392578125, 668.1730346679688, 692.4757690429688, 716.778564453125, 741.081298828125, 765.3840942382812, 789.6868286132812, 813.9896240234375, 838.2923583984375, 862.5951538085938, 886.8978881835938, 911.20068359375, 935.50341796875, 959.8062133789062, 984.1089477539062]}, "gradients/conv3.att_j": {"_type": "histogram", "values": [1.0, 0.0, 0.0, 0.0, 0.0, 0.0, 1.0, 0.0, 0.0, 1.0, 1.0, 0.0, 0.0, 0.0, 0.0, 0.0, 3.0, 0.0, 0.0, 0.0, 0.0, 0.0, 0.0, 0.0, 3.0, 1.0, 1.0, 2.0, 2.0, 5.0, 1.0, 1.0, 5.0, 4.0, 3.0, 7.0, 9.0, 22.0, 23.0, 24.0, 27.0, 10.0, 7.0, 3.0, 9.0, 3.0, 0.0, 1.0, 2.0, 2.0, 2.0, 3.0, 1.0, 1.0, 1.0, 0.0, 0.0, 1.0, 2.0, 0.0, 1.0, 0.0, 3.0, 1.0], "bins": [-0.6573324203491211, -0.6405218839645386, -0.6237114071846008, -0.6069008708000183, -0.5900903940200806, -0.573279857635498, -0.5564693808555603, -0.5396588444709778, -0.52284836769104, -0.5060378313064575, -0.4892273247241974, -0.47241681814193726, -0.4556063115596771, -0.438795804977417, -0.42198529839515686, -0.40517479181289673, -0.3883642852306366, -0.37155377864837646, -0.35474327206611633, -0.3379327654838562, -0.32112225890159607, -0.30431175231933594, -0.2875012457370758, -0.2706907391548157, -0.25388020277023315, -0.23706971108913422, -0.22025920450687408, -0.20344869792461395, -0.18663817644119263, -0.1698276698589325, -0.15301716327667236, -0.13620665669441223, -0.1193961501121521, -0.10258564352989197, -0.08577513694763184, -0.06896462291479111, -0.052154116332530975, -0.035343609750270844, -0.018533099442720413, -0.0017225909978151321, 0.015087917447090149, 0.03189842402935028, 0.04870893433690071, 0.06551944464445114, 0.08232995122671127, 0.0991404578089714, 0.11595097184181213, 0.13276147842407227, 0.1495719850063324, 0.16638249158859253, 0.18319299817085266, 0.2000035047531128, 0.21681401133537292, 0.23362453281879425, 0.2504350244998932, 0.2672455310821533, 0.28405606746673584, 0.30086657404899597, 0.3176770806312561, 0.33448758721351624, 0.35129809379577637, 0.3681086003780365, 0.38491910696029663, 0.40172961354255676, 0.4185401201248169]}, "gradients/linear2.bias": {"_type": "histogram", "values": [1.0, 0.0, 1.0, 0.0, 2.0, 0.0, 1.0, 1.0, 3.0, 0.0, 0.0, 1.0, 2.0, 0.0, 2.0, 0.0, 1.0, 0.0, 1.0, 1.0, 1.0, 1.0, 3.0, 2.0, 4.0, 5.0, 4.0, 27.0, 2.0, 3.0, 4.0, 3.0, 1.0, 2.0, 1.0, 3.0, 1.0, 2.0, 0.0, 1.0, 1.0, 0.0, 3.0, 1.0, 1.0, 1.0, 0.0, 0.0, 1.0, 2.0, 0.0, 1.0, 0.0, 0.0, 0.0, 0.0, 0.0, 1.0, 0.0, 0.0, 0.0, 0.0, 0.0, 1.0], "bins": [-26.578632354736328, -25.604164123535156, -24.629697799682617, -23.655229568481445, -22.680761337280273, -21.706295013427734, -20.731826782226562, -19.75735855102539, -18.78289222717285, -17.80842399597168, -16.833955764770508, -15.859489440917969, -14.885021209716797, -13.910553932189941, -12.936086654663086, -11.961618423461914, -10.987151145935059, -10.012683868408203, -9.038215637207031, -8.063748359680176, -7.08928108215332, -6.114813327789307, -5.140345573425293, -4.1658782958984375, -3.191410541534424, -2.2169430255889893, -1.2424753904342651, -0.2680078148841858, 0.7064597606658936, 1.6809272766113281, 2.655395030975342, 3.6298625469207764, 4.604330062866211, 5.578797817230225, 6.55326509475708, 7.527732849121094, 8.50220012664795, 9.476668357849121, 10.451135635375977, 11.425602912902832, 12.400070190429688, 13.37453842163086, 14.349005699157715, 15.32347297668457, 16.297941207885742, 17.272409439086914, 18.246875762939453, 19.221343994140625, 20.195812225341797, 21.170278549194336, 22.144746780395508, 23.119213104248047, 24.09368133544922, 25.06814956665039, 26.04261589050293, 27.0170841217041, 27.991552352905273, 28.966018676757812, 29.940486907958984, 30.914955139160156, 31.889421463012695, 32.8638916015625, 33.838356018066406, 34.81282424926758, 35.78729248046875]}, "gradients/conv5.lin.weight": {"_type": "histogram", "values": [1.0, 0.0, 0.0, 0.0, 3.0, 3.0, 3.0, 6.0, 6.0, 7.0, 17.0, 29.0, 51.0, 55.0, 80.0, 119.0, 182.0, 274.0, 394.0, 651.0, 918.0, 1410.0, 2260.0, 3504.0, 22699.0, 2628.0, 1529.0, 986.0, 600.0, 428.0, 303.0, 196.0, 154.0, 98.0, 85.0, 72.0, 62.0, 30.0, 33.0, 26.0, 22.0, 17.0, 13.0, 11.0, 11.0, 7.0, 4.0, 7.0, 1.0, 1.0, 1.0, 1.0, 1.0, 0.0, 0.0, 0.0, 0.0, 0.0, 0.0, 0.0, 0.0, 0.0, 0.0, 1.0], "bins": [-300.3166198730469, -288.0275573730469, -275.738525390625, -263.449462890625, -251.16041564941406, -238.87136840820312, -226.58230590820312, -214.2932586669922, -202.00421142578125, -189.7151641845703, -177.42611694335938, -165.13705444335938, -152.84800720214844, -140.5589599609375, -128.2698974609375, -115.98085021972656, -103.69180297851562, -91.40275573730469, -79.11370086669922, -66.82464599609375, -54.53559875488281, -42.24654769897461, -29.957496643066406, -17.668445587158203, -5.37939453125, 6.909656524658203, 19.198707580566406, 31.48775863647461, 43.77680969238281, 56.065860748291016, 68.35491180419922, 80.64396667480469, 92.93301391601562, 105.22206115722656, 117.51111602783203, 129.8001708984375, 142.08921813964844, 154.37826538085938, 166.66732788085938, 178.9563751220703, 191.24542236328125, 203.5344696044922, 215.82351684570312, 228.11257934570312, 240.40162658691406, 252.690673828125, 264.979736328125, 277.2687683105469, 289.5578308105469, 301.8468933105469, 314.13592529296875, 326.42498779296875, 338.71405029296875, 351.0030822753906, 363.2921447753906, 375.5811767578125, 387.8702392578125, 400.1593017578125, 412.4483337402344, 424.7373962402344, 437.02642822265625, 449.31549072265625, 461.60455322265625, 473.8935852050781, 486.1826477050781]}, "gradients/conv5.bias": {"_type": "histogram", "values": [1.0, 0.0, 0.0, 0.0, 0.0, 1.0, 1.0, 1.0, 1.0, 1.0, 0.0, 1.0, 2.0, 0.0, 6.0, 4.0, 1.0, 5.0, 4.0, 6.0, 6.0, 2.0, 11.0, 2.0, 11.0, 5.0, 69.0, 2.0, 7.0, 7.0, 3.0, 10.0, 3.0, 5.0, 3.0, 2.0, 2.0, 1.0, 1.0, 1.0, 1.0, 2.0, 1.0, 0.0, 1.0, 0.0, 1.0, 1.0, 0.0, 0.0, 1.0, 1.0, 1.0, 0.0, 0.0, 0.0, 1.0, 0.0, 0.0, 0.0, 0.0, 0.0, 0.0, 1.0], "bins": [-29.14014434814453, -28.05851936340332, -26.976892471313477, -25.895267486572266, -24.813640594482422, -23.73201560974121, -22.650390625, -21.568763732910156, -20.487138748168945, -19.405513763427734, -18.32388687133789, -17.24226188659668, -16.16063690185547, -15.079010009765625, -13.997385025024414, -12.915759086608887, -11.83413314819336, -10.752507209777832, -9.670881271362305, -8.589256286621094, -7.507630348205566, -6.426004409790039, -5.34437894821167, -4.262753486633301, -3.1811275482177734, -2.099501848220825, -1.017876148223877, 0.06374955177307129, 1.1453752517700195, 2.2270009517669678, 3.308626651763916, 4.390252113342285, 5.4718780517578125, 6.55350399017334, 7.635129451751709, 8.716754913330078, 9.798380851745605, 10.880006790161133, 11.961631774902344, 13.043257713317871, 14.124883651733398, 15.206509590148926, 16.288135528564453, 17.369760513305664, 18.451385498046875, 19.53301239013672, 20.61463737487793, 21.696264266967773, 22.777889251708984, 23.859514236450195, 24.94114112854004, 26.02276611328125, 27.104393005371094, 28.186017990112305, 29.267642974853516, 30.34926986694336, 31.43089485168457, 32.51251983642578, 33.594146728515625, 34.67577362060547, 35.75739669799805, 36.83902359008789, 37.920650482177734, 39.00227355957031, 40.083900451660156]}, "gradients/linear1.weight": {"_type": "histogram", "values": [1.0, 0.0, 0.0, 1.0, 0.0, 0.0, 1.0, 1.0, 1.0, 2.0, 3.0, 1.0, 2.0, 2.0, 5.0, 6.0, 8.0, 18.0, 9.0, 22.0, 36.0, 51.0, 51.0, 71.0, 89.0, 119.0, 113.0, 149.0, 242.0, 293.0, 427.0, 626.0, 1040.0, 12341.0, 1529.0, 744.0, 496.0, 384.0, 289.0, 193.0, 141.0, 105.0, 75.0, 70.0, 47.0, 51.0, 33.0, 20.0, 23.0, 12.0, 9.0, 10.0, 6.0, 11.0, 6.0, 3.0, 1.0, 2.0, 3.0, 1.0, 0.0, 1.0, 1.0, 3.0], "bins": [-708.3248291015625, -687.3217163085938, -666.3186645507812, -645.3155517578125, -624.3125, -603.3093872070312, -582.3062744140625, -561.30322265625, -540.3001098632812, -519.2969970703125, -498.2939453125, -477.29083251953125, -456.2877502441406, -435.28466796875, -414.28155517578125, -393.2784729003906, -372.275390625, -351.2723083496094, -330.26922607421875, -309.26611328125, -288.2630310058594, -267.25994873046875, -246.25685119628906, -225.25375366210938, -204.25067138671875, -183.24758911132812, -162.24449157714844, -141.24139404296875, -120.23831176757812, -99.23522186279297, -78.23213195800781, -57.229042053222656, -36.2259521484375, -15.222862243652344, 5.7802276611328125, 26.78331756591797, 47.786407470703125, 68.78949737548828, 89.79258728027344, 110.7956771850586, 131.79876708984375, 152.80184936523438, 173.80494689941406, 194.80804443359375, 215.81112670898438, 236.814208984375, 257.81732177734375, 278.8204040527344, 299.823486328125, 320.8265686035156, 341.82965087890625, 362.832763671875, 383.8358459472656, 404.83892822265625, 425.842041015625, 446.8451232910156, 467.84820556640625, 488.8512878417969, 509.8543701171875, 530.8574829101562, 551.860595703125, 572.8636474609375, 593.8667602539062, 614.8698120117188, 635.8729248046875]}, "gradients/conv5.att_i": {"_type": "histogram", "values": [1.0, 0.0, 0.0, 0.0, 0.0, 0.0, 0.0, 1.0, 1.0, 0.0, 2.0, 0.0, 1.0, 0.0, 1.0, 0.0, 0.0, 3.0, 0.0, 0.0, 0.0, 6.0, 0.0, 1.0, 4.0, 0.0, 0.0, 3.0, 8.0, 1.0, 4.0, 3.0, 26.0, 19.0, 5.0, 40.0, 10.0, 10.0, 3.0, 17.0, 4.0, 0.0, 6.0, 1.0, 1.0, 0.0, 5.0, 1.0, 3.0, 4.0, 0.0, 0.0, 0.0, 1.0, 0.0, 0.0, 2.0, 0.0, 1.0, 0.0, 0.0, 0.0, 0.0, 1.0], "bins": [-7.275957614183426e-11, -7.071321306284517e-11, -6.866684998385608e-11, -6.662048690486699e-11, -6.45741238258779e-11, -6.252776074688882e-11, -6.048139766789973e-11, -5.843503458891064e-11, -5.638867150992155e-11, -5.434230843093246e-11, -5.2295945351943374e-11, -5.0249582272954285e-11, -4.8203219193965197e-11, -4.615685611497611e-11, -4.411049303598702e-11, -4.206412995699793e-11, -4.001776687800884e-11, -3.7971403799019754e-11, -3.5925040720030665e-11, -3.387867764104158e-11, -3.183231456205249e-11, -2.97859514830634e-11, -2.773958840407431e-11, -2.5693225325085223e-11, -2.3646862246096134e-11, -2.1600499167107046e-11, -1.9554136088117957e-11, -1.750777300912887e-11, -1.546140993013978e-11, -1.3415046851150692e-11, -1.1368683772161603e-11, -9.322320693172514e-12, -7.275957614183426e-12, -5.229594535194337e-12, -3.183231456205249e-12, -1.1368683772161603e-12, 9.094947017729282e-13, 2.9558577807620168e-12, 5.002220859751105e-12, 7.048583938740194e-12, 9.094947017729282e-12, 1.1141310096718371e-11, 1.318767317570746e-11, 1.5234036254696548e-11, 1.7280399333685637e-11, 1.9326762412674725e-11, 2.1373125491663814e-11, 2.3419488570652902e-11, 2.546585164964199e-11, 2.751221472863108e-11, 2.955857780762017e-11, 3.1604940886609256e-11, 3.3651303965598345e-11, 3.5697667044587433e-11, 3.774403012357652e-11, 3.979039320256561e-11, 4.18367562815547e-11, 4.388311936054379e-11, 4.5929482439532876e-11, 4.7975845518521965e-11, 5.002220859751105e-11, 5.206857167650014e-11, 5.411493475548923e-11, 5.616129783447832e-11, 5.820766091346741e-11]}, "gradients/conv2.lin.weight": {"_type": "histogram", "values": [1.0, 0.0, 1.0, 0.0, 1.0, 1.0, 2.0, 4.0, 1.0, 11.0, 8.0, 22.0, 16.0, 22.0, 37.0, 68.0, 86.0, 131.0, 198.0, 262.0, 401.0, 542.0, 916.0, 1617.0, 3869.0, 12635.0, 12802.0, 2985.0, 1299.0, 695.0, 373.0, 238.0, 164.0, 127.0, 108.0, 65.0, 60.0, 41.0, 43.0, 28.0, 15.0, 20.0, 14.0, 14.0, 13.0, 10.0, 6.0, 3.0, 5.0, 5.0, 4.0, 0.0, 3.0, 2.0, 2.0, 0.0, 0.0, 1.0, 1.0, 0.0, 1.0, 0.0, 0.0, 1.0], "bins": [-1031.9189453125, -992.3599853515625, -952.8010864257812, -913.2421264648438, -873.6832275390625, -834.124267578125, -794.5653076171875, -755.0064086914062, -715.4474487304688, -675.8884887695312, -636.32958984375, -596.7706298828125, -557.211669921875, -517.6527709960938, -478.09381103515625, -438.5348815917969, -398.9759521484375, -359.4170227050781, -319.85809326171875, -280.29913330078125, -240.74020385742188, -201.1812744140625, -161.62232971191406, -122.06339263916016, -82.50445556640625, -42.945518493652344, -3.3865814208984375, 36.17235565185547, 75.73129272460938, 115.29022979736328, 154.8491668701172, 194.40811157226562, 233.967041015625, 273.5259704589844, 313.08489990234375, 352.64385986328125, 392.2027893066406, 431.76171875, 471.3206787109375, 510.8796081542969, 550.4385375976562, 589.9974975585938, 629.556396484375, 669.1153564453125, 708.67431640625, 748.2332153320312, 787.7921752929688, 827.35107421875, 866.9100341796875, 906.468994140625, 946.0278930664062, 985.5868530273438, 1025.145751953125, 1064.7047119140625, 1104.263671875, 1143.8226318359375, 1183.381591796875, 1222.9404296875, 1262.4993896484375, 1302.058349609375, 1341.6173095703125, 1381.17626953125, 1420.735107421875, 1460.2940673828125, 1499.85302734375]}, "gradients/conv3.bias": {"_type": "histogram", "values": [1.0, 0.0, 0.0, 0.0, 1.0, 0.0, 0.0, 0.0, 0.0, 0.0, 3.0, 3.0, 2.0, 3.0, 5.0, 5.0, 7.0, 11.0, 9.0, 9.0, 10.0, 15.0, 43.0, 3.0, 13.0, 8.0, 9.0, 9.0, 8.0, 9.0, 4.0, 2.0, 2.0, 1.0, 0.0, 1.0, 1.0, 1.0, 0.0, 0.0, 0.0, 0.0, 0.0, 0.0, 1.0, 0.0, 0.0, 0.0, 0.0, 0.0, 0.0, 0.0, 0.0, 0.0, 0.0, 0.0, 0.0, 0.0, 0.0, 0.0, 0.0, 0.0, 0.0, 1.0], "bins": [-265.370849609375, -253.734130859375, -242.09739685058594, -230.46066284179688, -218.82394409179688, -207.18722534179688, -195.5504913330078, -183.91375732421875, -172.27703857421875, -160.64031982421875, -149.0035858154297, -137.36685180664062, -125.73013305664062, -114.0934066772461, -102.45668029785156, -90.81995391845703, -79.1832275390625, -67.54650115966797, -55.90977478027344, -44.273048400878906, -32.636322021484375, -20.999595642089844, -9.362869262695312, 2.2738571166992188, 13.91058349609375, 25.54730987548828, 37.18403625488281, 48.820762634277344, 60.457489013671875, 72.0942153930664, 83.73094177246094, 95.36766815185547, 107.00439453125, 118.64112091064453, 130.27784729003906, 141.91458129882812, 153.55130004882812, 165.18801879882812, 176.8247528076172, 188.46148681640625, 200.09820556640625, 211.73492431640625, 223.3716583251953, 235.00839233398438, 246.64511108398438, 258.2818298339844, 269.9185791015625, 281.5552978515625, 293.1920166015625, 304.8287353515625, 316.4654541015625, 328.1022033691406, 339.7389221191406, 351.3756408691406, 363.01239013671875, 374.64910888671875, 386.28582763671875, 397.92254638671875, 409.55926513671875, 421.1960144042969, 432.8327331542969, 444.4694519042969, 456.106201171875, 467.742919921875, 479.379638671875]}, "gradients/linear2.weight": {"_type": "histogram", "values": [1.0, 0.0, 0.0, 0.0, 0.0, 1.0, 0.0, 0.0, 1.0, 1.0, 1.0, 4.0, 4.0, 4.0, 7.0, 8.0, 15.0, 17.0, 16.0, 25.0, 44.0, 45.0, 59.0, 84.0, 98.0, 126.0, 178.0, 225.0, 407.0, 716.0, 5895.0, 603.0, 367.0, 270.0, 197.0, 119.0, 99.0, 82.0, 60.0, 58.0, 42.0, 22.0, 19.0, 21.0, 17.0, 7.0, 10.0, 5.0, 6.0, 3.0, 0.0, 0.0, 2.0, 3.0, 2.0, 0.0, 2.0, 0.0, 0.0, 0.0, 1.0, 0.0, 0.0, 1.0], "bins": [-1271.5810546875, -1229.818603515625, -1188.0562744140625, -1146.2938232421875, -1104.5313720703125, -1062.76904296875, -1021.006591796875, -979.2442016601562, -937.4818115234375, -895.7193603515625, -853.9569702148438, -812.194580078125, -770.43212890625, -728.6697387695312, -686.9073486328125, -645.1448974609375, -603.3825073242188, -561.6201171875, -519.857666015625, -478.09527587890625, -436.3328857421875, -394.5704650878906, -352.80804443359375, -311.045654296875, -269.2832336425781, -227.5208282470703, -185.7584228515625, -143.99600219726562, -102.23359680175781, -60.471187591552734, -18.708778381347656, 23.053630828857422, 64.8160400390625, 106.57844543457031, 148.34085083007812, 190.103271484375, 231.8656768798828, 273.6280822753906, 315.3905029296875, 357.15289306640625, 398.9153137207031, 440.677734375, 482.44012451171875, 524.2025146484375, 565.9649658203125, 607.7273559570312, 649.48974609375, 691.252197265625, 733.0145874023438, 774.7769775390625, 816.5394287109375, 858.3018188476562, 900.064208984375, 941.82666015625, 983.5890502929688, 1025.3514404296875, 1067.1138916015625, 1108.876220703125, 1150.638671875, 1192.401123046875, 1234.1634521484375, 1275.9259033203125, 1317.6883544921875, 1359.45068359375, 1401.213134765625]}, "gradients/conv5.att_j": {"_type": "histogram", "values": [1.0, 0.0, 1.0, 0.0, 0.0, 0.0, 2.0, 0.0, 1.0, 0.0, 1.0, 1.0, 0.0, 5.0, 0.0, 0.0, 8.0, 0.0, 3.0, 0.0, 10.0, 11.0, 1.0, 17.0, 2.0, 19.0, 36.0, 4.0, 11.0, 8.0, 11.0, 1.0, 11.0, 14.0, 0.0, 3.0, 1.0, 4.0, 1.0, 0.0, 3.0, 0.0, 0.0, 4.0, 1.0, 0.0, 0.0, 3.0, 0.0, 0.0, 0.0, 0.0, 0.0, 0.0, 0.0, 0.0, 0.0, 0.0, 0.0, 0.0, 0.0, 0.0, 0.0, 1.0], "bins": [-5.820766091346741e-11, -5.60476109967567e-11, -5.3887561080046e-11, -5.1727511163335294e-11, -4.956746124662459e-11, -4.7407411329913884e-11, -4.524736141320318e-11, -4.3087311496492475e-11, -4.092726157978177e-11, -3.8767211663071066e-11, -3.660716174636036e-11, -3.444711182964966e-11, -3.228706191293895e-11, -3.012701199622825e-11, -2.7966962079517543e-11, -2.580691216280684e-11, -2.3646862246096134e-11, -2.148681232938543e-11, -1.9326762412674725e-11, -1.716671249596402e-11, -1.5006662579253316e-11, -1.2846612662542611e-11, -1.0686562745831907e-11, -8.526512829121202e-12, -6.366462912410498e-12, -4.206412995699793e-12, -2.0463630789890885e-12, 1.1368683772161603e-13, 2.2737367544323206e-12, 4.433786671143025e-12, 6.59383658785373e-12, 8.753886504564434e-12, 1.0913936421275139e-11, 1.3073986337985843e-11, 1.5234036254696548e-11, 1.7394086171407253e-11, 1.9554136088117957e-11, 2.1714186004828662e-11, 2.3874235921539366e-11, 2.603428583825007e-11, 2.8194335754960775e-11, 3.035438567167148e-11, 3.2514435588382185e-11, 3.467448550509289e-11, 3.6834535421803594e-11, 3.89945853385143e-11, 4.1154635255225e-11, 4.331468517193571e-11, 4.547473508864641e-11, 4.7634785005357116e-11, 4.979483492206782e-11, 5.1954884838778526e-11, 5.411493475548923e-11, 5.6274984672199935e-11, 5.843503458891064e-11, 6.059508450562134e-11, 6.275513442233205e-11, 6.491518433904275e-11, 6.707523425575346e-11, 6.923528417246416e-11, 7.139533408917487e-11, 7.355538400588557e-11, 7.571543392259628e-11, 7.787548383930698e-11, 8.003553375601768e-11]}, "gradients/linear3.weight": {"_type": "histogram", "values": [1.0, 1.0, 0.0, 1.0, 0.0, 0.0, 0.0, 2.0, 1.0, 0.0, 1.0, 0.0, 3.0, 1.0, 3.0, 6.0, 3.0, 4.0, 5.0, 8.0, 5.0, 5.0, 15.0, 20.0, 20.0, 23.0, 25.0, 31.0, 25.0, 37.0, 45.0, 61.0, 80.0, 124.0, 166.0, 1137.0, 364.0, 178.0, 122.0, 90.0, 71.0, 62.0, 34.0, 25.0, 19.0, 18.0, 16.0, 12.0, 7.0, 8.0, 5.0, 1.0, 1.0, 3.0, 3.0, 0.0, 0.0, 1.0, 0.0, 0.0, 0.0, 0.0, 0.0, 1.0], "bins": [-3683.96435546875, -3581.49462890625, -3479.025146484375, -3376.555419921875, -3274.085693359375, -3171.6162109375, -3069.146484375, -2966.6767578125, -2864.20703125, -2761.737548828125, -2659.267822265625, -2556.798095703125, -2454.32861328125, -2351.85888671875, -2249.38916015625, -2146.919677734375, -2044.449951171875, -1941.9803466796875, -1839.5106201171875, -1737.041015625, -1634.5712890625, -1532.1016845703125, -1429.632080078125, -1327.162353515625, -1224.6927490234375, -1122.22314453125, -1019.75341796875, -917.2838134765625, -814.8141479492188, -712.344482421875, -609.8748779296875, -507.40521240234375, -404.935546875, -302.46588134765625, -199.99624633789062, -97.52659606933594, 4.94305419921875, 107.41270446777344, 209.88235473632812, 312.35198974609375, 414.8216552734375, 517.2913208007812, 619.760986328125, 722.2305908203125, 824.7002563476562, 927.169921875, 1029.6395263671875, 1132.1092529296875, 1234.578857421875, 1337.0484619140625, 1439.5181884765625, 1541.98779296875, 1644.45751953125, 1746.9271240234375, 1849.396728515625, 1951.866455078125, 2054.3359375, 2156.8056640625, 2259.275390625, 2361.7451171875, 2464.214599609375, 2566.684326171875, 2669.154052734375, 2771.62353515625, 2874.09326171875]}, "gradients/conv1.bias": {"_type": "histogram", "values": [1.0, 0.0, 0.0, 0.0, 1.0, 0.0, 0.0, 0.0, 0.0, 0.0, 0.0, 0.0, 0.0, 0.0, 1.0, 1.0, 0.0, 0.0, 1.0, 0.0, 0.0, 2.0, 0.0, 0.0, 1.0, 1.0, 4.0, 1.0, 1.0, 3.0, 0.0, 1.0, 0.0, 4.0, 4.0, 6.0, 8.0, 6.0, 8.0, 15.0, 15.0, 12.0, 11.0, 13.0, 13.0, 6.0, 9.0, 9.0, 8.0, 5.0, 3.0, 2.0, 4.0, 2.0, 2.0, 4.0, 3.0, 2.0, 1.0, 0.0, 0.0, 2.0, 1.0, 3.0], "bins": [-2201.0419921875, -2152.48193359375, -2103.921630859375, -2055.361572265625, -2006.8013916015625, -1958.2413330078125, -1909.68115234375, -1861.1209716796875, -1812.5609130859375, -1764.000732421875, -1715.4405517578125, -1666.8804931640625, -1618.3203125, -1569.7601318359375, -1521.2000732421875, -1472.639892578125, -1424.079833984375, -1375.5196533203125, -1326.95947265625, -1278.3994140625, -1229.8392333984375, -1181.279052734375, -1132.718994140625, -1084.1588134765625, -1035.5986328125, -987.0385131835938, -938.4783935546875, -889.9182739257812, -841.3580932617188, -792.7979736328125, -744.2378540039062, -695.6776733398438, -647.1175537109375, -598.5574340820312, -549.9972534179688, -501.4371337890625, -452.87701416015625, -404.3168640136719, -355.7567138671875, -307.19659423828125, -258.6364440917969, -210.07630920410156, -161.51617431640625, -112.95602416992188, -64.39588928222656, -15.835750579833984, 32.724388122558594, 81.28453063964844, 129.84466552734375, 178.40480041503906, 226.96493530273438, 275.52508544921875, 324.085205078125, 372.6453552246094, 421.20550537109375, 469.765625, 518.3258056640625, 566.8859252929688, 615.446044921875, 664.0061645507812, 712.5663452148438, 761.12646484375, 809.6865844726562, 858.2467651367188, 906.806884765625]}, "gradients/conv4.att_j": {"_type": "histogram", "values": [1.0, 0.0, 0.0, 0.0, 1.0, 0.0, 0.0, 0.0, 0.0, 0.0, 0.0, 1.0, 2.0, 0.0, 2.0, 0.0, 2.0, 1.0, 1.0, 5.0, 0.0, 3.0, 0.0, 3.0, 0.0, 2.0, 1.0, 5.0, 4.0, 8.0, 2.0, 3.0, 19.0, 18.0, 39.0, 13.0, 14.0, 9.0, 6.0, 2.0, 5.0, 2.0, 5.0, 1.0, 1.0, 1.0, 2.0, 0.0, 1.0, 1.0, 1.0, 1.0, 2.0, 0.0, 1.0, 2.0, 1.0, 2.0, 0.0, 3.0, 0.0, 0.0, 0.0, 1.0], "bins": [-2.9103830456733704e-11, -2.8251179173821583e-11, -2.7398527890909463e-11, -2.6545876607997343e-11, -2.5693225325085223e-11, -2.4840574042173102e-11, -2.3987922759260982e-11, -2.3135271476348862e-11, -2.2282620193436742e-11, -2.142996891052462e-11, -2.05773176276125e-11, -1.972466634470038e-11, -1.887201506178826e-11, -1.801936377887614e-11, -1.716671249596402e-11, -1.63140612130519e-11, -1.546140993013978e-11, -1.460875864722766e-11, -1.375610736431554e-11, -1.290345608140342e-11, -1.2050804798491299e-11, -1.1198153515579179e-11, -1.0345502232667059e-11, -9.492850949754938e-12, -8.640199666842818e-12, -7.787548383930698e-12, -6.934897101018578e-12, -6.0822458181064576e-12, -5.229594535194337e-12, -4.376943252282217e-12, -3.524291969370097e-12, -2.6716406864579767e-12, -1.8189894035458565e-12, -9.663381206337363e-13, -1.1368683772161603e-13, 7.389644451905042e-13, 1.5916157281026244e-12, 2.4442670110147446e-12, 3.296918293926865e-12, 4.149569576838985e-12, 5.002220859751105e-12, 5.8548721426632255e-12, 6.707523425575346e-12, 7.560174708487466e-12, 8.412825991399586e-12, 9.265477274311706e-12, 1.0118128557223827e-11, 1.0970779840135947e-11, 1.1823431123048067e-11, 1.2676082405960187e-11, 1.3528733688872308e-11, 1.4381384971784428e-11, 1.5234036254696548e-11, 1.6086687537608668e-11, 1.693933882052079e-11, 1.779199010343291e-11, 1.864464138634503e-11, 1.949729266925715e-11, 2.034994395216927e-11, 2.120259523508139e-11, 2.205524651799351e-11, 2.290789780090563e-11, 2.376054908381775e-11, 2.461320036672987e-11, 2.546585164964199e-11]}, "gradients/conv2.bias": {"_type": "histogram", "values": [1.0, 0.0, 1.0, 0.0, 1.0, 0.0, 3.0, 1.0, 2.0, 1.0, 2.0, 3.0, 3.0, 5.0, 3.0, 7.0, 7.0, 6.0, 9.0, 10.0, 6.0, 12.0, 11.0, 5.0, 11.0, 10.0, 12.0, 12.0, 7.0, 6.0, 5.0, 7.0, 6.0, 2.0, 5.0, 3.0, 1.0, 0.0, 1.0, 0.0, 1.0, 0.0, 3.0, 0.0, 2.0, 1.0, 1.0, 0.0, 1.0, 0.0, 1.0, 0.0, 0.0, 1.0, 1.0, 0.0, 0.0, 0.0, 0.0, 0.0, 0.0, 0.0, 0.0, 1.0], "bins": [-660.30322265625, -634.3474731445312, -608.3917846679688, -582.43603515625, -556.4802856445312, -530.5245971679688, -504.56884765625, -478.6131286621094, -452.65740966796875, -426.70166015625, -400.7459411621094, -374.79022216796875, -348.83447265625, -322.8787536621094, -296.92303466796875, -270.96728515625, -245.01156616210938, -219.0558319091797, -193.10011291503906, -167.14437866210938, -141.18865966796875, -115.23292541503906, -89.27719116210938, -63.32146453857422, -37.36573791503906, -11.410009384155273, 14.545719146728516, 40.50144958496094, 66.4571762084961, 92.41290283203125, 118.36863708496094, 144.32435607910156, 170.28009033203125, 196.23582458496094, 222.19154357910156, 248.14727783203125, 274.1029968261719, 300.0587463378906, 326.01446533203125, 351.9701843261719, 377.9259033203125, 403.88165283203125, 429.8373718261719, 455.7930908203125, 481.74884033203125, 507.7045593261719, 533.6602783203125, 559.6160278320312, 585.57177734375, 611.5274658203125, 637.4832153320312, 663.4389038085938, 689.3946533203125, 715.3504028320312, 741.3060913085938, 767.2618408203125, 793.2175903320312, 819.1732788085938, 845.1290283203125, 871.0847778320312, 897.0404663085938, 922.9962158203125, 948.9519653320312, 974.9076538085938, 1000.8634033203125]}, "gradients/conv4.bias": {"_type": "histogram", "values": [1.0, 0.0, 0.0, 0.0, 0.0, 0.0, 0.0, 0.0, 0.0, 0.0, 1.0, 2.0, 0.0, 0.0, 1.0, 2.0, 1.0, 1.0, 0.0, 2.0, 1.0, 0.0, 3.0, 2.0, 6.0, 4.0, 4.0, 5.0, 6.0, 10.0, 2.0, 4.0, 4.0, 7.0, 16.0, 60.0, 5.0, 3.0, 4.0, 4.0, 2.0, 3.0, 5.0, 2.0, 7.0, 4.0, 2.0, 1.0, 2.0, 1.0, 3.0, 2.0, 0.0, 1.0, 0.0, 0.0, 1.0, 1.0, 1.0, 0.0, 0.0, 0.0, 0.0, 1.0], "bins": [-91.62391662597656, -89.01280975341797, -86.40170288085938, -83.79059600830078, -81.17948150634766, -78.56837463378906, -75.95726776123047, -73.34616088867188, -70.73505401611328, -68.12394714355469, -65.51283264160156, -62.901729583740234, -60.290618896484375, -57.67951202392578, -55.06840515136719, -52.45729446411133, -49.846187591552734, -47.23508071899414, -44.62397003173828, -42.01286315917969, -39.401756286621094, -36.790645599365234, -34.17953872680664, -31.568431854248047, -28.95732307434082, -26.346214294433594, -23.735107421875, -21.123998641967773, -18.512889862060547, -15.901782989501953, -13.290674209594727, -10.679566383361816, -8.068458557128906, -5.457350730895996, -2.8462424278259277, -0.23513436317443848, 2.375973701477051, 4.987081527709961, 7.598189830780029, 10.209298133850098, 12.820405960083008, 15.431513786315918, 18.042621612548828, 20.653730392456055, 23.26483917236328, 25.875946044921875, 28.4870548248291, 31.098161697387695, 33.70927047729492, 36.320377349853516, 38.931488037109375, 41.54259490966797, 44.15370178222656, 46.76481246948242, 49.375919342041016, 51.98702621459961, 54.59813690185547, 57.20924377441406, 59.820350646972656, 62.43145751953125, 65.04256439208984, 67.65367889404297, 70.26478576660156, 72.87589263916016, 75.48699951171875]}}
